~o
<STREAMINFO> 1 39
<VECSIZE> 39<NULLD><MFCC_E_D_A_Z><DIAGC>
~s "silst"
<NUMMIXES> 7
<MIXTURE> 1 1.728533e-01
<MEAN> 39
 -5.673245e+00 -5.638837e-01 4.160783e+00 6.625502e+00 4.588511e+00 7.304259e+00 3.353374e+00 5.595365e+00 2.606903e+00 4.032083e+00 3.425464e+00 1.200686e+00 2.791857e-01 -2.651390e+00 -1.176637e+00 -1.229163e+00 9.856234e-01 1.065283e+00 1.972806e+00 2.420906e+00 2.856312e+00 1.961466e+00 1.823282e+00 1.022419e+00 4.309486e-01 -9.593261e-02 5.814579e-01 4.992401e-01 -1.666328e-01 -5.694423e-01 -4.995823e-01 -7.030964e-01 -4.801342e-01 -5.182531e-01 -2.531354e-01 -4.919104e-01 -3.114057e-01 -2.104797e-01 3.742805e-02
<VARIANCE> 39
 2.052977e+01 3.338393e+01 1.908630e+01 2.514824e+01 2.623810e+01 3.123426e+01 2.958643e+01 3.409156e+01 3.314576e+01 3.129447e+01 3.016141e+01 2.816160e+01 2.307028e-02 1.846131e+00 2.277460e+00 2.420924e+00 2.246040e+00 2.487482e+00 2.909350e+00 2.938994e+00 3.168679e+00 3.001001e+00 3.163359e+00 3.542086e+00 3.613197e+00 2.481312e-03 2.700256e-01 4.944362e-01 3.496177e-01 5.249773e-01 4.985042e-01 5.533525e-01 5.505339e-01 6.683486e-01 6.916062e-01 6.468207e-01 5.486621e-01 5.210372e-01 3.447546e-04
<GCONST> 9.804071e+01
<MIXTURE> 2 1.004979e-01
<MEAN> 39
 -1.043961e+00 -3.215613e+00 6.888387e-01 3.141807e-01 1.030407e+00 3.462451e+00 5.502168e+00 4.404052e+00 4.257669e+00 5.288932e+00 3.994295e+00 2.609354e+00 4.584037e-01 7.709169e-02 -3.037228e-01 -8.041821e-01 -2.620253e-01 -5.155959e-01 -4.551594e-01 -5.249588e-01 -4.771132e-01 -1.849148e-01 7.085478e-01 4.673975e-01 1.959926e-01 6.564762e-02 5.821689e-02 2.951824e-01 2.425643e-02 -7.711059e-02 -3.168577e-02 -1.172118e-01 -4.313254e-01 -3.341255e-01 -3.426534e-01 -4.269101e-01 -3.505001e-01 -1.790923e-01 7.516658e-03
<VARIANCE> 39
 2.464761e+01 7.907922e+01 4.856597e+01 6.455963e+01 6.068536e+01 9.286283e+01 7.113629e+01 7.533577e+01 7.607519e+01 8.659759e+01 1.071971e+02 7.478694e+01 5.690214e-02 3.407606e+00 7.501410e+00 4.911509e+00 6.064094e+00 5.369959e+00 7.255013e+00 7.354547e+00 7.318065e+00 8.241010e+00 8.009908e+00 8.613642e+00 6.637426e+00 1.318436e-02 4.383684e-01 7.915996e-01 7.255777e-01 1.150010e+00 1.021643e+00 1.341285e+00 1.221692e+00 1.303633e+00 1.358297e+00 1.621045e+00 1.880706e+00 1.418480e+00 1.100766e-03
<GCONST> 1.321323e+02
<MIXTURE> 3 1.968119e-01
<MEAN> 39
 -3.060250e+00 -2.143134e+00 1.620182e+00 3.016225e+00 3.182020e+00 4.066258e+00 2.652854e+00 3.453174e+00 3.377645e+00 2.376337e+00 2.128653e+00 1.277322e+00 7.851949e-02 -6.440599e-01 6.908841e-02 -1.545809e-01 2.177949e-01 -2.291648e-02 1.128465e-01 6.077927e-02 1.095866e-01 2.064953e-02 6.991998e-02 -1.051190e-02 -8.423565e-02 -1.128452e-02 2.701014e-01 2.972467e-01 8.513950e-02 3.948112e-02 -2.744504e-02 -7.334960e-02 -1.090419e-01 -1.418907e-01 -1.374216e-01 -1.025127e-01 -8.847590e-02 -9.608500e-03 2.697967e-02
<VARIANCE> 39
 1.754201e+01 4.449366e+01 2.840807e+01 2.863621e+01 2.968149e+01 3.181009e+01 3.089345e+01 3.616113e+01 3.083480e+01 3.048763e+01 3.024366e+01 2.283373e+01 3.081206e-02 1.982757e+00 2.162199e+00 1.818233e+00 2.028817e+00 2.087658e+00 2.318561e+00 2.517461e+00 2.848027e+00 2.686094e+00 2.383331e+00 2.401067e+00 1.975133e+00 4.138336e-03 2.715496e-01 4.523074e-01 3.375741e-01 3.752016e-01 4.501135e-01 4.784387e-01 5.015792e-01 5.584005e-01 5.593712e-01 5.034086e-01 4.632016e-01 3.884615e-01 6.899105e-04
<GCONST> 9.581162e+01
<MIXTURE> 4 9.522596e-02
<MEAN> 39
 4.943729e+00 6.135848e+00 9.252211e-01 -2.166419e+00 -2.336063e+00 -1.869595e+00 -1.703924e+00 1.973016e+00 3.220976e+00 5.010344e+00 5.169081e+00 5.046746e+00 5.890951e-01 1.922490e+00 1.292026e+00 -2.147247e+00 -2.528363e+00 -2.209591e+00 -2.667489e+00 -1.752149e+00 -1.910325e+00 -1.676713e+00 -1.100748e+00 -7.693194e-01 -1.800868e-01 1.789729e-01 -7.589890e-01 -4.885824e-01 1.172140e-01 3.402984e-01 5.673521e-01 5.816316e-01 4.502732e-01 2.664277e-01 -1.604784e-01 -4.215516e-01 -5.533491e-01 -5.627378e-01 -2.948151e-02
<VARIANCE> 39
 3.307136e+01 5.823537e+01 5.261964e+01 3.769120e+01 3.305665e+01 3.751347e+01 4.816607e+01 3.693322e+01 3.688130e+01 3.677111e+01 3.849911e+01 3.875182e+01 3.064085e-02 3.963720e+00 5.214885e+00 4.284756e+00 3.127947e+00 3.370386e+00 3.787019e+00 4.180150e+00 3.229088e+00 3.409386e+00 4.083769e+00 4.634328e+00 5.328170e+00 3.734119e-03 3.392938e-01 3.976995e-01 6.054709e-01 6.109267e-01 5.574988e-01 6.073622e-01 8.031411e-01 6.731334e-01 6.048239e-01 6.268737e-01 5.616022e-01 6.336151e-01 4.690403e-04
<GCONST> 1.091341e+02
<MIXTURE> 5 1.968163e-01
<MEAN> 39
 -3.060362e+00 -2.143390e+00 1.620122e+00 3.016294e+00 3.182108e+00 4.066278e+00 2.652991e+00 3.453217e+00 3.377628e+00 2.376446e+00 2.128693e+00 1.277364e+00 7.853162e-02 -6.440846e-01 6.909668e-02 -1.545942e-01 2.178069e-01 -2.294078e-02 1.128346e-01 6.076184e-02 1.095552e-01 2.063636e-02 6.992996e-02 -1.052175e-02 -8.424788e-02 -1.128240e-02 2.701325e-01 2.972710e-01 8.513249e-02 3.946077e-02 -2.746444e-02 -7.336479e-02 -1.090542e-01 -1.419120e-01 -1.374437e-01 -1.025252e-01 -8.849028e-02 -9.611640e-03 2.698176e-02
<VARIANCE> 39
 1.754274e+01 4.449402e+01 2.840964e+01 2.863763e+01 2.968298e+01 3.181123e+01 3.089481e+01 3.616281e+01 3.083633e+01 3.048847e+01 3.024475e+01 2.283469e+01 3.081276e-02 1.982966e+00 2.162457e+00 1.818397e+00 2.029004e+00 2.087810e+00 2.318712e+00 2.517640e+00 2.848230e+00 2.686284e+00 2.383461e+00 2.401236e+00 1.975252e+00 4.138906e-03 2.715742e-01 4.523473e-01 3.376054e-01 3.752379e-01 4.501497e-01 4.784741e-01 5.016140e-01 5.584369e-01 5.594050e-01 5.034319e-01 4.632269e-01 3.884845e-01 6.899615e-04
<GCONST> 9.581417e+01
<MIXTURE> 6 1.459113e-01
<MEAN> 39
 -7.470324e+00 -2.620049e+00 -1.383147e-01 5.112059e+00 2.565193e+00 5.936489e+00 2.217773e+00 3.589737e+00 3.481654e+00 1.383112e+00 3.355851e+00 3.029427e+00 3.120192e-01 -2.672761e+00 -1.866913e+00 -2.316068e+00 -1.105834e+00 -6.929119e-01 -3.300804e-01 2.082688e-02 7.284971e-01 7.483492e-01 5.228181e-01 9.810762e-01 7.617556e-01 -9.657755e-02 6.103495e-01 4.786410e-01 3.017910e-01 -3.148670e-01 -2.726651e-01 -4.380397e-01 -1.759366e-01 -4.034553e-01 -8.252429e-02 -5.132228e-02 -4.571514e-01 -2.873006e-01 3.039667e-02
<VARIANCE> 39
 2.791123e+01 3.618308e+01 2.523614e+01 2.367304e+01 2.790622e+01 3.055840e+01 3.386732e+01 3.554279e+01 2.800874e+01 2.603765e+01 2.462403e+01 1.625672e+01 1.727430e-02 1.598624e+00 2.045156e+00 1.726873e+00 1.526576e+00 1.749396e+00 2.205426e+00 2.679678e+00 2.646524e+00 2.777032e+00 2.528872e+00 2.618092e+00 2.291396e+00 2.079864e-03 2.657102e-01 4.226361e-01 3.453918e-01 4.405527e-01 4.803278e-01 4.637128e-01 5.437636e-01 5.413191e-01 4.690061e-01 5.105050e-01 4.796647e-01 3.896582e-01 2.656745e-04
<GCONST> 9.224927e+01
<MIXTURE> 7 9.187462e-02
<MEAN> 39
 7.510088e+00 5.650915e+00 4.626445e+00 -1.142609e+00 -1.581628e+00 -2.325823e+00 -4.769892e+00 -4.596211e+00 -2.145304e+00 -2.029049e+00 -2.455168e+00 -3.488525e-01 6.337377e-01 1.322225e+00 1.217751e+00 -9.197968e-01 -1.557894e+00 -9.453170e-01 -7.915347e-01 -9.735191e-01 -2.718209e-01 -5.568525e-01 -2.651805e-02 -3.368631e-02 -3.825341e-01 1.222066e-01 -1.151790e+00 -5.948656e-01 -4.643482e-01 2.577094e-02 3.374918e-01 4.750455e-01 6.261113e-01 7.659732e-01 6.660045e-01 3.828195e-01 4.931938e-01 2.185415e-01 -3.536274e-02
<VARIANCE> 39
 2.585421e+01 3.816856e+01 6.312225e+01 4.312439e+01 4.221054e+01 3.603155e+01 4.278860e+01 4.073524e+01 3.891680e+01 3.338749e+01 3.437862e+01 2.738425e+01 2.018540e-02 4.792833e+00 2.641259e+00 4.349564e+00 3.497789e+00 3.526952e+00 3.437902e+00 3.901489e+00 3.571738e+00 3.980770e+00 3.476884e+00 3.899016e+00 3.592233e+00 4.702186e-03 4.078041e-01 2.651326e-01 6.564981e-01 8.832316e-01 5.695857e-01 6.493955e-01 7.997752e-01 7.490368e-01 6.510705e-01 5.933062e-01 5.726571e-01 5.819114e-01 3.226661e-04
<GCONST> 1.073178e+02
~h "#i"
<BEGINHMM>
<NUMSTATES> 12
<STATE> 2
<NUMMIXES> 6
<MIXTURE> 1 7.508563e-02
<MEAN> 39
 -3.301306e+00 9.385582e+00 -6.535392e+00 -3.660313e+00 -7.188245e+00 -5.364293e+00 6.055049e-01 -2.186484e-01 6.069687e+00 7.977147e+00 1.022488e+01 1.229811e+01 8.842778e-01 -4.309928e-01 -2.938614e-02 -4.848382e-03 1.255510e-01 -3.156354e-01 -2.195035e-01 -6.319439e-01 -3.113492e-01 5.435610e-01 1.144609e+00 1.632996e+00 1.444376e+00 2.279479e-02 3.561882e-01 8.617456e-02 2.012064e-01 1.987534e-01 2.162989e-01 1.650800e-01 2.589080e-01 2.710485e-01 -2.670819e-02 -2.888777e-01 -6.272582e-01 -7.659625e-01 -1.044341e-02
<VARIANCE> 39
 2.034509e+01 3.080160e+01 2.596371e+01 1.607121e+01 2.620509e+01 1.961823e+01 2.732318e+01 3.652211e+01 7.469350e+01 7.304691e+01 4.404498e+01 7.361602e+01 6.930385e-03 9.144340e-01 8.225499e-01 9.672148e-01 1.272188e+00 1.467558e+00 1.214878e+00 1.848616e+00 1.581033e+00 2.591100e+00 3.395285e+00 4.414292e+00 5.001766e+00 2.524594e-04 1.127366e-01 1.583825e-01 2.178950e-01 2.261065e-01 2.859887e-01 2.695538e-01 3.021370e-01 3.077788e-01 4.846556e-01 5.808114e-01 4.735750e-01 4.685569e-01 1.352268e-04
<GCONST> 8.391864e+01
<MIXTURE> 2 1.034270e-01
<MEAN> 39
 -7.609075e-01 1.126663e+01 -4.545815e+00 -3.163794e+00 -6.826625e+00 -6.550842e+00 -3.515805e+00 -2.326171e+00 -4.805041e+00 -3.355834e+00 -5.182529e+00 -3.548048e-01 8.130412e-01 -2.096766e-01 3.562808e-01 3.268937e-03 6.045091e-01 -1.019076e-01 1.035695e-01 -3.745321e-01 -5.673704e-01 -5.054169e-01 -4.388701e-01 -3.575545e-01 5.268390e-01 1.919398e-02 1.440348e-01 -2.370839e-02 2.507539e-01 1.097719e-01 3.357927e-01 2.286415e-01 2.505040e-01 3.788509e-01 5.406059e-01 4.298311e-01 4.956394e-01 2.218088e-01 -4.137191e-03
<VARIANCE> 39
 1.338298e+01 2.881475e+01 1.927165e+01 2.148236e+01 2.180166e+01 2.996807e+01 3.382179e+01 3.238953e+01 2.544348e+01 2.778222e+01 3.777393e+01 4.554869e+01 1.129365e-02 6.703247e-01 9.350345e-01 9.324360e-01 1.332333e+00 1.402547e+00 1.588767e+00 1.952634e+00 2.222860e+00 1.969582e+00 2.185457e+00 3.652309e+00 4.085223e+00 4.110656e-04 1.112737e-01 1.328485e-01 1.809792e-01 2.641118e-01 2.645604e-01 4.149501e-01 3.369497e-01 3.450461e-01 3.074997e-01 3.669223e-01 4.136439e-01 4.752603e-01 1.418904e-04
<GCONST> 8.076616e+01
<MIXTURE> 3 3.538750e-01
<MEAN> 39
 -1.017194e+00 1.448075e+01 5.854720e-01 -2.588964e+00 -5.241995e+00 -5.095274e+00 -9.598004e+00 1.157955e+00 -1.433762e+00 -2.754273e+00 3.520595e+00 -2.955645e+00 8.156091e-01 -3.535916e-01 9.713539e-01 -2.905112e-01 5.659645e-01 -3.778389e-01 5.576311e-02 -5.499480e-01 -1.473633e-01 -4.338735e-01 -4.893100e-01 3.071550e-01 -4.506881e-01 1.345975e-02 1.129515e-01 -3.788109e-01 6.378371e-02 -1.370687e-01 -1.374779e-02 1.400516e-01 2.283664e-01 -1.683102e-02 3.402806e-02 1.494890e-01 -2.140943e-01 8.747712e-02 -1.328805e-03
<VARIANCE> 39
 9.332627e+00 2.883953e+01 1.646309e+01 2.354930e+01 2.085006e+01 2.637869e+01 2.679793e+01 2.612380e+01 3.044515e+01 3.320755e+01 2.579347e+01 2.110531e+01 6.170818e-03 4.819584e-01 9.772310e-01 9.786046e-01 1.483988e+00 1.202270e+00 1.437455e+00 1.570649e+00 1.648603e+00 1.793655e+00 1.907978e+00 1.415526e+00 1.517442e+00 2.966513e-04 6.999585e-02 1.616726e-01 1.551831e-01 2.520104e-01 2.602249e-01 2.683010e-01 2.548659e-01 3.025983e-01 2.739542e-01 3.021038e-01 2.542374e-01 2.678219e-01 4.854369e-05
<GCONST> 7.115585e+01
<MIXTURE> 4 1.453660e-01
<MEAN> 39
 2.776489e-01 1.253763e+01 -3.384946e+00 -1.384340e+00 -5.776038e+00 -5.086217e+00 -1.137662e-01 1.584871e-01 -1.649701e+00 5.644111e-01 -3.868577e+00 4.702807e+00 8.184369e-01 -9.431844e-01 -5.644109e-01 -8.517878e-01 -3.831345e-01 -8.491442e-01 -1.164163e+00 -1.522641e+00 -1.451599e+00 -1.410119e+00 -1.485892e+00 -1.323311e+00 -6.407889e-01 3.613870e-02 2.976364e-03 -3.057660e-01 1.183105e-01 9.904012e-02 1.769191e-01 8.971323e-02 9.427349e-03 2.502849e-02 1.272084e-01 9.575273e-02 1.854606e-01 -6.632288e-02 -1.042375e-02
<VARIANCE> 39
 1.535824e+01 3.336250e+01 1.609894e+01 1.474534e+01 1.356116e+01 1.632847e+01 1.858072e+01 2.770996e+01 2.019178e+01 2.487658e+01 2.260319e+01 2.052133e+01 7.789966e-03 4.778611e-01 5.174593e-01 6.795701e-01 8.618716e-01 1.015545e+00 1.140153e+00 1.046992e+00 1.257658e+00 1.207060e+00 1.433995e+00 1.908996e+00 2.280563e+00 3.739596e-04 1.292532e-01 2.126865e-01 1.396543e-01 1.546617e-01 2.116661e-01 2.224795e-01 2.483285e-01 2.599732e-01 2.640814e-01 2.687689e-01 3.013839e-01 2.835982e-01 1.726586e-04
<GCONST> 6.815766e+01
<MIXTURE> 5 1.034277e-01
<MEAN> 39
 -7.607978e-01 1.126662e+01 -4.545684e+00 -3.163600e+00 -6.826449e+00 -6.550463e+00 -3.515578e+00 -2.326100e+00 -4.804970e+00 -3.355840e+00 -5.182499e+00 -3.544910e-01 8.130382e-01 -2.096196e-01 3.563142e-01 3.309710e-03 6.045254e-01 -1.018717e-01 1.036004e-01 -3.745143e-01 -5.673147e-01 -5.053558e-01 -4.388078e-01 -3.574943e-01 5.269132e-01 1.919340e-02 1.440201e-01 -2.370499e-02 2.507221e-01 1.097372e-01 3.357615e-01 2.285788e-01 2.504737e-01 3.788248e-01 5.405868e-01 4.298076e-01 4.956160e-01 2.217590e-01 -4.136386e-03
<VARIANCE> 39
 1.338260e+01 2.881437e+01 1.927189e+01 2.148220e+01 2.180193e+01 2.996765e+01 3.382129e+01 3.238944e+01 2.544310e+01 2.778203e+01 3.777411e+01 4.554792e+01 1.129386e-02 6.703081e-01 9.350094e-01 9.324293e-01 1.332313e+00 1.402535e+00 1.588783e+00 1.952618e+00 2.222818e+00 1.969607e+00 2.185413e+00 3.652097e+00 4.084932e+00 4.110497e-04 1.112681e-01 1.328435e-01 1.809704e-01 2.641054e-01 2.645507e-01 4.149287e-01 3.369457e-01 3.450454e-01 3.075068e-01 3.669165e-01 4.136434e-01 4.752441e-01 1.418744e-04
<GCONST> 8.076540e+01
<MIXTURE> 6 2.188121e-01
<MEAN> 39
 2.082678e+00 1.322750e+01 -2.007440e+00 -1.451218e+00 -3.697248e+00 -4.057926e+00 9.025567e-01 2.585142e+00 5.174236e-01 2.842593e+00 -5.231161e-01 2.913636e+00 6.958984e-01 3.689003e-02 1.083220e+00 -2.393073e-01 3.500646e-01 -6.960392e-01 -2.133453e-01 -6.117504e-01 -4.222777e-01 -4.764175e-01 -1.719934e-01 -4.158685e-01 4.346055e-01 1.958272e-02 -1.878156e-01 -4.330326e-01 -8.156751e-02 -2.364777e-01 -1.032598e-01 -9.699981e-02 -2.985134e-01 -2.764381e-01 -2.508922e-01 -3.919291e-01 -1.616133e-01 -2.340807e-01 6.372865e-03
<VARIANCE> 39
 1.213206e+01 2.591147e+01 1.885635e+01 2.585670e+01 1.831854e+01 2.178565e+01 3.902603e+01 2.780169e+01 2.543409e+01 3.106583e+01 4.276529e+01 4.994077e+01 1.443573e-02 6.366464e-01 1.506860e+00 1.027427e+00 1.609190e+00 1.533036e+00 2.065871e+00 2.172948e+00 2.233931e+00 2.226612e+00 2.249930e+00 3.301396e+00 2.545582e+00 1.068124e-03 1.191770e-01 2.777604e-01 1.975721e-01 2.765083e-01 3.078158e-01 4.859894e-01 3.728156e-01 3.411201e-01 3.038430e-01 3.892951e-01 5.541048e-01 5.878723e-01 1.500030e-04
<GCONST> 8.445005e+01
<STATE> 3
<NUMMIXES> 6
<MIXTURE> 1 1.564448e-01
<MEAN> 39
 -2.514036e+00 8.252052e+00 -4.956119e+00 -2.995345e+00 -7.293363e+00 -7.475353e+00 -5.702790e+00 -4.129564e+00 -4.755839e+00 -3.231511e+00 -4.172921e+00 6.826566e-01 9.065812e-01 4.153569e-02 2.075215e-02 3.535654e-02 1.705907e-01 5.748836e-02 1.823940e-02 -4.408513e-02 -9.989078e-02 2.246946e-04 -1.231152e-01 6.712662e-02 1.990867e-02 7.763161e-03 1.973071e-01 1.963127e-01 3.200920e-01 2.234855e-01 3.919207e-01 3.473946e-01 4.545844e-01 4.612678e-01 4.120861e-01 3.391216e-01 2.858566e-01 1.822273e-01 -3.500877e-03
<VARIANCE> 39
 1.068591e+01 4.757991e+01 1.378257e+01 1.456218e+01 1.881677e+01 2.132412e+01 2.235745e+01 2.168387e+01 2.483824e+01 2.246008e+01 3.891850e+01 4.658154e+01 6.551172e-03 2.213766e-01 3.888772e-01 5.527149e-01 6.204184e-01 9.259496e-01 8.080283e-01 9.236690e-01 1.010271e+00 8.543980e-01 8.933467e-01 1.027828e+00 1.002780e+00 1.131551e-04 3.922992e-02 7.386569e-02 8.731940e-02 1.042835e-01 1.343732e-01 1.349571e-01 1.484054e-01 1.784874e-01 1.572345e-01 1.422223e-01 2.204178e-01 2.038737e-01 1.738266e-05
<GCONST> 5.493227e+01
<MIXTURE> 2 1.344991e-01
<MEAN> 39
 -1.044533e+00 9.572796e+00 -1.143444e+00 -6.020813e-01 -3.157101e+00 -3.505379e+00 -3.912693e+00 -2.258772e-01 -2.246563e+00 -8.892691e-01 2.028387e-01 8.187236e-01 9.108220e-01 1.752418e-01 3.201188e-01 2.414050e-01 4.165481e-01 3.298589e-01 3.072047e-01 2.541475e-01 2.383923e-01 3.274692e-01 2.592653e-01 2.107652e-01 1.988191e-01 3.772161e-03 1.519038e-03 -1.013379e-01 -8.050430e-02 -1.216076e-01 -6.154598e-02 -8.590205e-02 -4.458149e-02 -5.989034e-02 2.391017e-04 -9.418406e-03 -5.526239e-02 -6.781780e-02 -2.046524e-03
<VARIANCE> 39
 7.969873e+00 4.749635e+01 1.046173e+01 1.230002e+01 1.791583e+01 2.278914e+01 2.869291e+01 1.900786e+01 2.193597e+01 2.376598e+01 3.543020e+01 3.003105e+01 5.123229e-03 1.710012e-01 3.042078e-01 4.161867e-01 4.771109e-01 6.642535e-01 6.889927e-01 7.948129e-01 8.059656e-01 7.492805e-01 7.378843e-01 7.875512e-01 7.625545e-01 8.242975e-05 3.033244e-02 5.251705e-02 7.500292e-02 9.088609e-02 1.292529e-01 1.081376e-01 1.262341e-01 1.389089e-01 1.446357e-01 1.176220e-01 1.417596e-01 1.203841e-01 8.515362e-06
<GCONST> 4.686816e+01
<MIXTURE> 3 3.177308e-01
<MEAN> 39
 -2.051365e+00 1.217501e+01 -7.083620e-01 -1.747642e+00 -3.436944e+00 -4.219985e+00 -5.872201e+00 -1.219876e-01 -1.407409e+00 -2.683755e+00 2.373616e+00 -6.853796e-01 8.978835e-01 1.881486e-02 3.938336e-02 6.026852e-03 -4.162057e-02 7.266103e-02 -2.401791e-02 6.993742e-02 -5.099356e-03 7.261507e-02 -7.121973e-03 3.041996e-03 1.522101e-03 1.517377e-04 1.021896e-02 -2.606455e-02 8.305026e-03 -3.596948e-02 -7.432450e-03 -2.891884e-02 8.555692e-03 1.296165e-03 9.222696e-03 1.863552e-02 -1.977261e-02 4.476965e-03 -9.721022e-04
<VARIANCE> 39
 7.450786e+00 5.389563e+01 8.447042e+00 9.710408e+00 1.077467e+01 1.593466e+01 2.764450e+01 1.401102e+01 1.732863e+01 2.468140e+01 3.041189e+01 2.453230e+01 6.706908e-03 6.360026e-02 9.420663e-02 1.161921e-01 1.598472e-01 1.780745e-01 1.946292e-01 2.072254e-01 2.263912e-01 2.407877e-01 2.365230e-01 1.734372e-01 1.969253e-01 3.754082e-05 8.704315e-03 1.616198e-02 2.006877e-02 2.472294e-02 3.205410e-02 3.162901e-02 3.460949e-02 3.563199e-02 4.345650e-02 4.050582e-02 3.076711e-02 4.035755e-02 3.730628e-06
<GCONST> 1.329326e+01
<MIXTURE> 4 1.212523e-01
<MEAN> 39
 -1.362060e+00 6.200649e+00 -1.719775e+00 -9.776042e-02 -2.250913e+00 -2.330891e+00 -1.351229e+00 -7.811869e-01 -1.197976e+00 -6.470031e-01 -1.658686e+00 2.298434e+00 9.404850e-01 -1.663398e-01 -4.803816e-01 -5.956493e-01 -4.749135e-01 -5.729896e-01 -6.063241e-01 -6.585971e-01 -7.027007e-01 -5.011510e-01 -4.994553e-01 -3.851287e-01 -4.563162e-01 1.610439e-03 -5.012893e-02 -1.005484e-01 -1.191527e-01 -1.685276e-01 -1.470561e-01 -1.458195e-01 -9.241351e-02 -7.558463e-02 -1.399839e-01 -1.180887e-01 -8.216365e-02 -1.085304e-01 -1.460374e-03
<VARIANCE> 39
 8.462067e+00 3.758574e+01 7.544792e+00 1.003565e+01 1.321654e+01 1.953222e+01 1.386661e+01 1.393163e+01 1.392592e+01 1.849824e+01 2.466773e+01 2.679247e+01 3.033143e-03 1.378769e-01 1.927660e-01 2.735606e-01 3.706118e-01 4.911363e-01 5.399836e-01 5.733418e-01 6.210545e-01 5.697658e-01 4.748166e-01 8.128054e-01 5.766321e-01 6.212465e-05 2.498454e-02 5.756390e-02 7.708501e-02 9.287282e-02 1.128845e-01 1.046961e-01 1.151496e-01 1.456343e-01 9.665916e-02 1.088196e-01 1.448725e-01 9.902606e-02 5.911108e-06
<GCONST> 3.795504e+01
<MIXTURE> 5 1.344979e-01
<MEAN> 39
 -1.044508e+00 9.574006e+00 -1.143433e+00 -6.022295e-01 -3.157642e+00 -3.505747e+00 -3.913462e+00 -2.257203e-01 -2.246689e+00 -8.894393e-01 2.031975e-01 8.185078e-01 9.108115e-01 1.752071e-01 3.201179e-01 2.413708e-01 4.165198e-01 3.298036e-01 3.071615e-01 2.540799e-01 2.383629e-01 3.274120e-01 2.592139e-01 2.107201e-01 1.987659e-01 3.773366e-03 1.532175e-03 -1.013439e-01 -8.048989e-02 -1.216071e-01 -6.151709e-02 -8.589025e-02 -4.455530e-02 -5.987871e-02 2.598010e-04 -9.402050e-03 -5.525677e-02 -6.780796e-02 -2.046807e-03
<VARIANCE> 39
 7.970293e+00 4.749768e+01 1.046261e+01 1.230074e+01 1.791670e+01 2.278939e+01 2.869633e+01 1.900953e+01 2.193888e+01 2.377019e+01 3.543371e+01 3.003255e+01 5.123624e-03 1.710127e-01 3.042044e-01 4.161696e-01 4.771100e-01 6.642262e-01 6.889971e-01 7.948062e-01 8.059478e-01 7.492968e-01 7.379137e-01 7.875435e-01 7.625728e-01 8.243705e-05 3.033508e-02 5.251774e-02 7.500366e-02 9.088861e-02 1.292510e-01 1.081335e-01 1.262314e-01 1.389064e-01 1.446388e-01 1.176256e-01 1.417578e-01 1.203910e-01 8.516773e-06
<GCONST> 4.686961e+01
<MIXTURE> 6 1.355663e-01
<MEAN> 39
 -8.136895e-01 1.253578e+01 -4.854752e+00 -1.778161e+00 -6.252560e+00 -8.675534e+00 -5.100947e+00 -1.616345e+00 -5.335397e+00 -2.107916e+00 -5.585024e+00 2.004319e+00 8.674905e-01 -3.863737e-02 -8.919855e-02 -2.132703e-01 -1.309856e-01 -1.286393e-01 -1.849315e-01 -1.085884e-01 -2.146494e-01 -3.911804e-02 -1.791719e-01 -1.445753e-01 -1.820517e-01 6.368138e-04 1.018242e-02 1.360426e-02 4.944594e-02 -3.827545e-03 5.052715e-02 4.145718e-02 7.520299e-02 4.640147e-02 9.085336e-02 5.135837e-02 7.511370e-02 -2.515556e-02 -1.220639e-03
<VARIANCE> 39
 1.026529e+01 1.897563e+01 9.689965e+00 1.499586e+01 1.841123e+01 1.930386e+01 2.130066e+01 2.576665e+01 2.511804e+01 2.595766e+01 2.418935e+01 3.456110e+01 6.811074e-03 6.847010e-02 1.321425e-01 1.670073e-01 2.763314e-01 2.954933e-01 3.593394e-01 3.392365e-01 3.817159e-01 4.130767e-01 3.072427e-01 3.466733e-01 3.879488e-01 3.754082e-05 1.326978e-02 2.220588e-02 3.470779e-02 3.662756e-02 5.511639e-02 6.155692e-02 6.763843e-02 7.019510e-02 8.273768e-02 5.640754e-02 5.719636e-02 7.449068e-02 3.730628e-06
<GCONST> 2.684208e+01
<STATE> 4
<NUMMIXES> 6
<MIXTURE> 1 1.193507e-01
<MEAN> 39
 -7.392617e-01 1.136931e+01 -6.745937e+00 -2.870496e+00 -9.275181e+00 -8.031579e+00 -4.848843e+00 -4.379634e+00 -3.929500e+00 -3.874106e+00 -5.505865e+00 1.035781e+00 8.800886e-01 3.726567e-01 4.967440e-01 5.085359e-01 6.749041e-01 7.400486e-01 8.088989e-01 7.714524e-01 7.006063e-01 7.211140e-01 6.026852e-01 5.518853e-01 3.084364e-01 -6.197491e-04 1.294070e-01 1.452987e-01 2.748348e-01 2.350986e-01 3.776715e-01 2.715421e-01 3.524891e-01 2.909020e-01 2.704507e-01 2.961080e-01 2.488443e-01 1.324610e-01 -1.161295e-03
<VARIANCE> 39
 1.517407e+01 3.305036e+01 1.547254e+01 1.554313e+01 1.355868e+01 2.262333e+01 1.889551e+01 2.660307e+01 2.483124e+01 3.113334e+01 4.075645e+01 5.901924e+01 6.922986e-03 1.445050e-01 2.911505e-01 3.398185e-01 5.370774e-01 5.278975e-01 6.449661e-01 6.843357e-01 6.166251e-01 5.833228e-01 6.684778e-01 5.292110e-01 8.095927e-01 3.754082e-05 1.944320e-02 4.433093e-02 5.141918e-02 9.080803e-02 9.683826e-02 1.061418e-01 9.111263e-02 1.176020e-01 1.247651e-01 1.118297e-01 1.296380e-01 1.472176e-01 3.847999e-06
<GCONST> 4.376165e+01
<MIXTURE> 2 1.231877e-01
<MEAN> 39
 4.280058e-01 1.375086e+01 -5.382753e+00 1.749258e-02 -5.994654e+00 -5.870272e+00 -1.304656e+00 -1.376223e+00 6.061962e-01 1.837090e+00 -8.243460e-01 5.534011e+00 8.920025e-01 2.175494e-01 2.500771e-01 3.297822e-01 3.626386e-01 4.705881e-01 3.636510e-01 4.369985e-01 3.859058e-01 4.982961e-01 4.024116e-01 3.108429e-01 8.954094e-02 -4.310777e-04 -7.213850e-02 -1.176142e-01 -4.544514e-02 -2.151632e-01 -6.580646e-02 -1.606846e-01 -6.220735e-02 -1.023005e-01 -1.020128e-01 -6.520483e-02 -5.102517e-02 -1.315488e-01 -1.371396e-03
<VARIANCE> 39
 1.666960e+01 2.769769e+01 2.052538e+01 1.717693e+01 1.492051e+01 1.838138e+01 1.994795e+01 3.368507e+01 5.594834e+01 5.762082e+01 7.342157e+01 6.678238e+01 6.240011e-03 1.729459e-01 2.911403e-01 3.892434e-01 5.158263e-01 6.719899e-01 7.565358e-01 7.559322e-01 7.663948e-01 6.960715e-01 9.075933e-01 8.698962e-01 9.614321e-01 3.754082e-05 3.356716e-02 4.970469e-02 8.976962e-02 9.909470e-02 1.211161e-01 1.403348e-01 1.344271e-01 1.495275e-01 1.352659e-01 1.840590e-01 1.490014e-01 1.500573e-01 3.730628e-06
<GCONST> 5.156386e+01
<MIXTURE> 3 3.549773e-01
<MEAN> 39
 -1.333107e+00 1.673479e+01 1.005515e+00 -1.461802e+00 -6.486181e+00 -3.394572e+00 -1.105807e+01 7.265437e-02 3.063795e-02 -5.063917e+00 4.670490e+00 -4.773916e+00 8.592053e-01 3.948162e-03 1.323173e-02 4.985623e-02 -8.451290e-02 1.754497e-01 -1.588677e-01 9.590742e-02 3.735525e-02 2.057695e-01 1.069723e-01 -4.326444e-03 -5.199170e-02 3.871888e-05 2.180772e-03 -9.853335e-02 1.044290e-02 -9.756768e-02 7.855907e-02 -9.572165e-02 6.048049e-02 -2.954337e-02 8.455139e-03 3.964088e-02 -5.377018e-02 7.127409e-02 -1.402325e-03
<VARIANCE> 39
 1.117444e+01 2.578091e+01 1.613546e+01 1.729749e+01 2.220260e+01 2.304586e+01 2.719890e+01 2.881166e+01 2.541417e+01 3.522688e+01 2.306438e+01 1.660530e+01 4.263398e-03 1.591591e-01 2.861622e-01 3.536528e-01 4.971236e-01 4.156710e-01 6.169500e-01 7.154508e-01 7.315150e-01 7.304167e-01 6.917022e-01 5.857967e-01 5.768198e-01 4.455583e-05 2.795415e-02 4.685225e-02 6.867396e-02 8.256550e-02 8.335926e-02 1.268061e-01 1.243172e-01 1.333498e-01 1.555080e-01 1.217790e-01 1.217311e-01 9.877852e-02 4.733751e-06
<GCONST> 4.343085e+01
<MIXTURE> 4 1.413460e-01
<MEAN> 39
 1.093016e+00 1.503936e+01 -4.414649e+00 7.865357e-01 -6.253635e+00 -6.539096e+00 -1.478119e+00 -1.509063e+00 -1.995474e+00 -3.439746e-01 -4.950546e+00 2.618433e+00 8.695112e-01 -2.215285e-01 -3.001511e-01 -4.668539e-01 -4.407676e-01 -4.996445e-01 -6.587324e-01 -2.267732e-01 -4.820990e-01 -3.029780e-01 -3.535576e-01 -3.583632e-01 -4.921964e-01 -2.948416e-05 -1.240043e-01 -1.754111e-01 -1.889031e-01 -3.161141e-01 -1.955224e-01 -2.659291e-01 -2.259267e-01 -2.233611e-01 -1.529709e-01 -2.634511e-01 -8.802818e-02 -2.213565e-01 -9.366626e-04
<VARIANCE> 39
 1.374090e+01 1.983633e+01 1.196012e+01 1.287439e+01 1.329249e+01 2.128596e+01 1.803148e+01 2.521719e+01 2.202373e+01 2.125951e+01 2.628661e+01 3.581317e+01 6.709944e-03 1.165380e-01 2.752258e-01 3.463777e-01 4.403051e-01 6.047921e-01 5.720547e-01 6.178306e-01 6.202506e-01 6.762422e-01 8.182412e-01 5.807267e-01 7.008046e-01 3.754082e-05 1.903990e-02 4.877226e-02 6.109536e-02 6.293254e-02 9.538178e-02 1.354903e-01 1.394728e-01 1.406737e-01 1.345964e-01 9.145538e-02 1.008127e-01 1.325686e-01 3.730628e-06
<GCONST> 4.102306e+01
<MIXTURE> 5 1.231948e-01
<MEAN> 39
 4.283660e-01 1.375117e+01 -5.382603e+00 1.788050e-02 -5.994629e+00 -5.870193e+00 -1.304977e+00 -1.376459e+00 6.051805e-01 1.836040e+00 -8.256333e-01 5.533273e+00 8.919971e-01 2.175612e-01 2.501124e-01 3.298189e-01 3.626891e-01 4.706328e-01 3.636872e-01 4.370740e-01 3.859407e-01 4.983292e-01 4.024856e-01 3.109083e-01 8.960816e-02 -4.311637e-04 -7.214765e-02 -1.176322e-01 -4.547061e-02 -2.151828e-01 -6.582972e-02 -1.607133e-01 -6.222323e-02 -1.023290e-01 -1.020319e-01 -6.523007e-02 -5.103913e-02 -1.315689e-01 -1.371360e-03
<VARIANCE> 39
 1.666815e+01 2.769646e+01 2.052350e+01 1.717566e+01 1.492004e+01 1.838198e+01 1.994632e+01 3.368391e+01 5.593523e+01 5.760992e+01 7.341119e+01 6.677643e+01 6.240403e-03 1.729371e-01 2.911205e-01 3.892120e-01 5.157939e-01 6.719770e-01 7.565489e-01 7.559379e-01 7.663971e-01 6.960422e-01 9.075537e-01 8.698770e-01 9.614093e-01 3.754082e-05 3.356461e-02 4.970279e-02 8.976492e-02 9.909199e-02 1.211184e-01 1.403405e-01 1.344302e-01 1.495289e-01 1.352679e-01 1.840572e-01 1.490007e-01 1.500563e-01 3.730628e-06
<GCONST> 5.156236e+01
<MIXTURE> 6 1.379399e-01
<MEAN> 39
 -4.084605e-01 1.246641e+01 -5.860886e+00 -2.544967e+00 -8.285924e+00 -8.584009e+00 -5.311124e+00 -4.159198e+00 -3.490124e+00 -4.345929e+00 -5.071093e+00 -3.568124e-01 8.655527e-01 -1.652319e-01 -2.317885e-01 -5.074524e-01 -4.774571e-01 -4.564565e-01 -4.171600e-01 -3.384363e-01 -5.020548e-01 -2.474732e-01 -4.047594e-01 -2.521790e-01 -3.939041e-01 1.657997e-04 1.083137e-01 1.071418e-01 2.000998e-01 1.162333e-01 2.894126e-01 2.927781e-01 2.507965e-01 2.466384e-01 2.603980e-01 1.906392e-01 2.383126e-01 1.737995e-01 -1.981747e-03
<VARIANCE> 39
 1.365429e+01 3.217014e+01 2.673285e+01 1.902176e+01 2.563915e+01 3.337505e+01 2.611363e+01 2.608742e+01 2.445876e+01 3.661865e+01 4.829079e+01 5.119297e+01 8.296474e-03 1.736663e-01 3.406443e-01 4.480373e-01 7.638798e-01 7.083126e-01 9.016178e-01 9.345872e-01 7.896255e-01 8.952677e-01 9.138799e-01 1.097791e+00 9.024122e-01 9.472890e-05 2.398038e-02 5.736586e-02 1.063839e-01 1.355884e-01 1.696234e-01 1.624462e-01 1.798315e-01 1.794548e-01 1.614739e-01 2.185670e-01 1.783826e-01 2.062013e-01 1.111446e-05
<GCONST> 5.705459e+01
<STATE> 5
<NUMMIXES> 6
<MIXTURE> 1 4.799008e-02
<MEAN> 39
 -1.438837e-01 8.591772e+00 -4.368298e+00 -2.269522e+00 -6.335782e+00 -6.109815e+00 -8.884395e-01 -3.788976e+00 -2.063546e+00 -3.292158e+00 -5.078541e+00 -8.150188e-01 7.984487e-01 8.978924e-01 3.376016e-01 2.390850e-01 4.476162e-01 6.092183e-01 8.089477e-01 5.339175e-01 4.515446e-01 5.701676e-01 1.079573e+00 1.560730e+00 1.042417e+00 -8.795242e-03 3.179371e-01 3.085170e-02 2.143850e-01 2.843441e-01 3.759515e-01 1.649130e-01 -1.146443e-02 3.363382e-01 3.293520e-01 1.295768e-01 2.725751e-01 3.004083e-01 -1.082802e-03
<VARIANCE> 39
 8.047748e+00 5.248294e+01 1.152763e+01 1.375343e+01 1.134976e+01 3.132701e+01 2.023491e+01 2.458168e+01 1.771377e+01 2.697978e+01 2.848004e+01 1.577421e+01 1.446177e-02 6.667972e-01 1.816758e-01 7.067060e-01 8.870715e-01 1.216578e+00 2.014517e+00 9.395490e-01 1.493530e+00 9.925562e-01 1.164070e+00 1.694858e+00 1.042059e+00 2.172669e-04 1.184834e-01 6.442446e-02 9.629955e-02 1.308654e-01 1.275615e-01 1.937987e-01 2.381927e-01 3.028987e-01 1.762825e-01 2.270212e-01 4.250856e-01 2.161039e-01 4.241854e-06
<GCONST> 6.029470e+01
<MIXTURE> 2 1.743712e-01
<MEAN> 39
 3.134373e+00 8.756424e+00 -2.431769e+00 6.458779e-01 -2.739455e+00 -3.516494e+00 -1.795105e+00 -4.690065e-01 -2.297693e-01 -1.376740e-01 -2.147694e+00 1.761221e-01 8.698495e-01 5.902117e-01 -7.834628e-02 -3.559253e-02 3.646559e-01 4.218864e-01 7.425642e-02 -1.382347e-02 5.085588e-02 3.250164e-01 4.733877e-01 1.177628e-01 1.005447e-01 -6.486366e-03 -5.829493e-02 -7.488417e-02 -1.672061e-02 -8.064590e-02 -6.374238e-02 -1.072298e-01 -1.566807e-01 -1.427648e-01 -1.247678e-01 -1.469472e-01 -1.848013e-02 -3.946425e-02 -1.276699e-03
<VARIANCE> 39
 1.048600e+01 4.207916e+01 1.978054e+01 9.422929e+00 1.933887e+01 2.023177e+01 2.060244e+01 2.158012e+01 1.950702e+01 3.571839e+01 3.006057e+01 1.540906e+01 4.829784e-03 3.888640e-01 7.181684e-01 1.403576e+00 9.584566e-01 1.260096e+00 1.606098e+00 1.897148e+00 1.675410e+00 1.642923e+00 1.841415e+00 1.969067e+00 1.483837e+00 8.893922e-05 5.609034e-02 1.188777e-01 1.972118e-01 1.764900e-01 1.800508e-01 2.281042e-01 3.085000e-01 2.691419e-01 2.295346e-01 2.985810e-01 2.405634e-01 2.235732e-01 7.257167e-06
<GCONST> 6.466074e+01
<MIXTURE> 3 3.245701e-01
<MEAN> 39
 -1.877788e+00 1.518742e+01 -5.171725e-02 -2.610291e+00 -4.791260e+00 -5.309747e+00 -9.319996e+00 -2.894279e-01 -8.093439e-01 -3.538599e+00 3.761282e+00 -3.550105e+00 8.754262e-01 -1.853778e-02 -3.283304e-01 1.886090e-01 -5.583298e-01 4.607634e-01 -2.885355e-01 1.797286e-01 4.139321e-03 3.640583e-01 1.673849e-01 -6.614619e-02 9.360176e-02 -5.088151e-03 1.192292e-01 -2.136567e-01 1.858286e-01 -1.731896e-01 1.893415e-01 6.406694e-02 2.127808e-01 1.128932e-01 3.750984e-02 1.028413e-01 -1.874235e-01 1.145909e-01 -4.168407e-03
<VARIANCE> 39
 9.784180e+00 2.887457e+01 1.604456e+01 2.169429e+01 1.495854e+01 2.469326e+01 2.793064e+01 2.089786e+01 2.742979e+01 2.565208e+01 2.354489e+01 1.989142e+01 5.062413e-03 2.738657e-01 3.866623e-01 5.391475e-01 9.718228e-01 6.869714e-01 7.932057e-01 9.599736e-01 8.825220e-01 1.288001e+00 9.801338e-01 1.067810e+00 7.544017e-01 1.346528e-04 5.008674e-02 7.832281e-02 1.351258e-01 1.463833e-01 1.299583e-01 1.550290e-01 2.037749e-01 2.005967e-01 1.785561e-01 2.093945e-01 1.388059e-01 1.644369e-01 1.612210e-05
<GCONST> 5.564596e+01
<MIXTURE> 4 8.913192e-02
<MEAN> 39
 1.050917e-01 1.343139e+01 -5.337567e+00 5.589119e-01 -5.624060e+00 -5.551846e+00 -1.705877e+00 -2.786879e+00 -1.160043e+00 -4.059595e-01 -2.216807e+00 4.139163e+00 9.098867e-01 -6.593590e-01 -8.498033e-01 -5.719177e-01 -1.389456e+00 -4.765930e-01 -1.287925e+00 -4.834419e-01 -9.308675e-01 -3.350935e-01 -6.086798e-01 -3.903113e-02 -8.390610e-01 -1.400194e-03 -9.401618e-02 -3.156313e-01 7.603549e-02 -5.258913e-01 1.651177e-02 -3.479149e-01 -5.119755e-02 -8.274506e-02 -1.001640e-01 -2.032055e-01 -1.141798e-01 -2.963076e-01 -2.645265e-03
<VARIANCE> 39
 1.694857e+01 3.417587e+01 2.446098e+01 1.913963e+01 1.439893e+01 2.792960e+01 1.386600e+01 2.085010e+01 2.285373e+01 1.607378e+01 4.293916e+01 6.656417e+01 3.115802e-03 3.059008e-01 4.450216e-01 4.730452e-01 6.223078e-01 9.425071e-01 1.192939e+00 1.196271e+00 1.017080e+00 1.347379e+00 1.746098e+00 1.843218e+00 1.512995e+00 5.030571e-05 6.261951e-02 1.156192e-01 2.293847e-01 1.608384e-01 1.898909e-01 2.055786e-01 2.972891e-01 2.478890e-01 2.014899e-01 2.563668e-01 2.802842e-01 3.043558e-01 6.224905e-06
<GCONST> 6.153396e+01
<MIXTURE> 5 1.743707e-01
<MEAN> 39
 3.134470e+00 8.756824e+00 -2.432009e+00 6.459327e-01 -2.739575e+00 -3.516551e+00 -1.795184e+00 -4.689813e-01 -2.296392e-01 -1.376577e-01 -2.147810e+00 1.760187e-01 8.698465e-01 5.902202e-01 -7.835520e-02 -3.566105e-02 3.646593e-01 4.219077e-01 7.425775e-02 -1.382751e-02 5.084318e-02 3.250300e-01 4.733824e-01 1.177310e-01 1.005447e-01 -6.485640e-03 -5.829821e-02 -7.488254e-02 -1.671775e-02 -8.064926e-02 -6.374180e-02 -1.072383e-01 -1.566827e-01 -1.427649e-01 -1.247732e-01 -1.469538e-01 -1.848086e-02 -3.945526e-02 -1.276584e-03
<VARIANCE> 39
 1.048632e+01 4.207949e+01 1.978256e+01 9.422961e+00 1.933948e+01 2.023211e+01 2.060265e+01 2.158142e+01 1.950823e+01 3.572065e+01 3.006259e+01 1.541036e+01 4.829861e-03 3.888672e-01 7.181835e-01 1.403661e+00 9.584752e-01 1.260128e+00 1.606195e+00 1.897149e+00 1.675517e+00 1.642976e+00 1.841470e+00 1.969136e+00 1.483938e+00 8.894543e-05 5.608988e-02 1.188785e-01 1.972182e-01 1.764925e-01 1.800565e-01 2.281087e-01 3.084976e-01 2.691532e-01 2.295420e-01 2.985909e-01 2.405704e-01 2.235833e-01 7.257433e-06
<GCONST> 6.466211e+01
<MIXTURE> 6 1.895650e-01
<MEAN> 39
 -6.158275e-01 1.331646e+01 -5.406955e+00 -5.834342e-01 -6.649266e+00 -6.891800e+00 -2.537513e+00 -1.182139e+00 3.849648e-01 1.422570e+00 -1.208812e+00 4.527910e+00 8.919973e-01 -2.621016e-01 -2.054075e-01 1.339121e-01 -7.008573e-01 4.604353e-01 -4.757462e-01 4.073679e-01 -1.691133e-01 3.289358e-01 -1.705890e-01 4.599338e-01 -3.499636e-01 -2.032007e-03 7.319447e-03 -2.473393e-01 2.210401e-01 -3.655715e-01 2.682428e-01 -1.495918e-01 -1.314609e-02 -6.756338e-02 -1.122477e-01 -2.906259e-02 1.156491e-01 -2.021720e-01 -3.815468e-03
<VARIANCE> 39
 2.021859e+01 2.831399e+01 1.771591e+01 2.506588e+01 1.886370e+01 2.408292e+01 3.048222e+01 4.925342e+01 5.886487e+01 5.879203e+01 8.746912e+01 9.228463e+01 5.878554e-03 3.510116e-01 4.448969e-01 6.526387e-01 7.575824e-01 1.253663e+00 1.121807e+00 1.470990e+00 9.622793e-01 1.333052e+00 1.208141e+00 1.168198e+00 1.333612e+00 4.387496e-05 9.031274e-02 1.222957e-01 2.432432e-01 2.387419e-01 2.832648e-01 3.215746e-01 3.422830e-01 3.185000e-01 3.222356e-01 3.314392e-01 3.626226e-01 3.535480e-01 1.265848e-05
<GCONST> 7.104588e+01
<STATE> 6
<NUMMIXES> 6
<MIXTURE> 1 3.362567e-02
<MEAN> 39
 9.051557e-01 1.050460e+01 -6.128829e+00 -4.679805e-01 -4.728293e+00 -6.220541e+00 -5.040888e+00 -2.920990e+00 5.129285e+00 4.231486e+00 6.813381e+00 7.183627e+00 8.341917e-01 1.202125e+00 5.649573e-01 4.733052e-01 6.661856e-01 1.262513e+00 9.863157e-01 -2.468513e-02 7.005876e-01 9.160102e-01 2.581057e+00 1.860977e+00 2.209488e-01 -3.431494e-03 -1.406881e-03 6.827821e-02 2.805953e-01 4.041135e-02 1.870671e-01 2.665141e-02 1.798820e-01 9.383564e-02 -1.912561e-01 -2.214419e-01 -2.833307e-01 -1.342322e-01 -4.522334e-03
<VARIANCE> 39
 3.149396e+01 3.509934e+01 1.555151e+01 3.497769e+01 2.896908e+01 3.625438e+01 3.655059e+01 4.506849e+01 8.273557e+01 9.649635e+01 6.352808e+01 1.151469e+02 1.837549e-02 8.542561e-01 9.229899e-01 8.136612e-01 4.468224e-01 9.089345e-01 2.389267e+00 1.378655e+00 1.099188e+00 5.817954e-01 2.745659e+00 5.320208e+00 4.131670e+00 3.339947e-04 1.845949e-01 1.189413e-01 2.195270e-01 2.210905e-01 3.542103e-01 5.249501e-01 1.468579e-01 2.519839e-01 2.731802e-01 5.413691e-01 2.671694e-01 4.284897e-01 1.566710e-05
<GCONST> 8.176395e+01
<MIXTURE> 2 1.243522e-01
<MEAN> 39
 -1.331884e+00 1.220052e+01 -6.518813e+00 -4.162315e+00 -8.337760e+00 -1.047223e+01 -5.262046e+00 -4.229469e+00 -4.929698e+00 -3.708056e+00 -6.171707e+00 -1.668630e+00 8.795527e-01 -1.618931e-01 -4.465352e-01 4.535778e-01 -1.122345e+00 9.000745e-01 -4.846479e-01 5.793152e-01 2.140710e-01 3.930247e-01 -3.099418e-01 8.523388e-01 -6.722039e-01 -9.402344e-03 3.023193e-01 -3.059012e-02 6.106111e-01 1.488387e-01 6.328415e-01 5.400534e-01 3.600670e-01 5.056610e-01 3.212807e-01 3.701525e-01 4.013019e-01 1.879639e-01 -6.256659e-03
<VARIANCE> 39
 1.727442e+01 3.016577e+01 1.617138e+01 2.249702e+01 1.518949e+01 2.575624e+01 2.161569e+01 3.097598e+01 2.605496e+01 2.391274e+01 2.525337e+01 4.461573e+01 4.563813e-03 6.145697e-01 6.731868e-01 1.205463e+00 1.830907e+00 1.518932e+00 1.643919e+00 2.646316e+00 1.873718e+00 2.272472e+00 1.690909e+00 1.958455e+00 1.737044e+00 1.297932e-04 9.589654e-02 1.460735e-01 2.177901e-01 2.412129e-01 2.026975e-01 2.621840e-01 4.038109e-01 3.829424e-01 3.831204e-01 4.130801e-01 2.816524e-01 3.047324e-01 2.689467e-05
<GCONST> 7.358560e+01
<MIXTURE> 3 3.616189e-01
<MEAN> 39
 -1.661783e+00 1.493602e+01 3.036163e-01 -3.928093e+00 -3.543455e+00 -6.362270e+00 -8.784268e+00 -2.559022e-01 9.482918e-01 -3.472236e+00 3.831563e+00 -3.310234e+00 8.636067e-01 1.728512e-01 -8.100561e-01 5.868018e-01 -1.105016e+00 7.052851e-01 -1.155670e-01 7.377567e-01 1.825083e-01 4.372653e-01 3.842145e-01 -4.792829e-01 2.749064e-01 -1.040806e-02 2.291966e-01 -3.279579e-01 2.235398e-01 6.766815e-02 7.657358e-02 4.010842e-01 2.802247e-01 1.445484e-01 -1.434980e-01 1.032251e-01 -2.950046e-01 6.735742e-02 -6.439747e-03
<VARIANCE> 39
 1.115510e+01 2.826030e+01 1.522484e+01 2.147804e+01 1.704825e+01 2.205262e+01 2.882536e+01 2.253750e+01 3.096316e+01 2.718359e+01 2.293420e+01 1.760423e+01 5.698217e-03 4.147398e-01 7.059295e-01 8.126638e-01 1.487665e+00 9.450020e-01 1.085572e+00 1.249197e+00 1.447920e+00 1.511041e+00 1.659479e+00 1.137545e+00 1.525375e+00 1.937374e-04 6.254122e-02 1.209501e-01 1.484560e-01 2.047262e-01 2.122180e-01 1.665793e-01 2.980952e-01 2.462260e-01 2.547405e-01 2.063614e-01 2.130752e-01 1.946063e-01 3.133670e-05
<GCONST> 6.486466e+01
<MIXTURE> 4 1.283915e-01
<MEAN> 39
 -3.843011e+00 1.139078e+01 -5.961871e+00 -2.795124e+00 -6.260489e+00 -7.061215e+00 1.400234e+00 -2.520609e+00 3.711670e+00 5.501846e+00 8.621382e+00 1.099735e+01 9.216169e-01 -5.391140e-01 -7.922421e-01 3.041103e-01 -1.778344e+00 7.519535e-01 -1.230785e+00 3.154546e-01 -1.185689e-01 -4.071410e-01 2.686800e-01 2.852526e-03 -4.047835e-01 -4.600860e-03 2.581781e-01 -3.595122e-01 4.025217e-01 -1.891082e-01 7.553504e-02 1.465047e-01 -3.808033e-01 2.282517e-01 -2.551388e-01 -2.232403e-01 -4.513680e-01 -5.068865e-01 -5.730796e-03
<VARIANCE> 39
 1.714600e+01 1.616968e+01 2.371387e+01 1.781832e+01 5.144364e+01 2.627483e+01 2.464256e+01 3.168013e+01 4.798273e+01 7.766203e+01 9.487791e+01 9.903601e+01 3.545844e-03 6.540051e-01 1.037255e+00 1.425931e+00 1.897298e+00 2.798856e+00 2.038238e+00 2.210879e+00 1.631340e+00 1.105040e+00 1.568209e+00 2.403836e+00 2.577790e+00 9.868530e-05 1.035314e-01 2.354852e-01 3.394174e-01 2.504067e-01 4.699702e-01 2.907836e-01 4.197299e-01 3.184505e-01 2.565238e-01 3.795046e-01 3.121626e-01 5.640066e-01 1.801486e-05
<GCONST> 8.055594e+01
<MIXTURE> 5 1.243620e-01
<MEAN> 39
 -1.332412e+00 1.220052e+01 -6.518713e+00 -4.162806e+00 -8.337968e+00 -1.047299e+01 -5.261887e+00 -4.229639e+00 -4.930085e+00 -3.708058e+00 -6.171977e+00 -1.668965e+00 8.795605e-01 -1.619062e-01 -4.465682e-01 4.535697e-01 -1.122392e+00 9.000967e-01 -4.846183e-01 5.793714e-01 2.139831e-01 3.930238e-01 -3.099659e-01 8.522973e-01 -6.722923e-01 -9.401871e-03 3.023595e-01 -3.059319e-02 6.106288e-01 1.488786e-01 6.328716e-01 5.401195e-01 3.600477e-01 5.057006e-01 3.212776e-01 3.701643e-01 4.013191e-01 1.879954e-01 -6.256949e-03
<VARIANCE> 39
 1.727121e+01 3.016368e+01 1.616900e+01 2.249486e+01 1.518871e+01 2.575547e+01 2.161410e+01 3.097327e+01 2.605031e+01 2.391164e+01 2.525208e+01 4.461578e+01 4.563300e-03 6.144943e-01 6.731222e-01 1.205364e+00 1.830857e+00 1.518905e+00 1.643813e+00 2.646102e+00 1.873562e+00 2.272319e+00 1.690800e+00 1.958349e+00 1.736913e+00 1.297931e-04 9.589383e-02 1.460616e-01 2.177900e-01 2.412266e-01 2.026780e-01 2.621716e-01 4.037792e-01 3.828985e-01 3.830755e-01 4.130407e-01 2.816529e-01 3.047353e-01 2.689566e-05
<GCONST> 7.358307e+01
<MIXTURE> 6 2.276489e-01
<MEAN> 39
 3.318418e+00 1.016292e+01 -3.479539e+00 9.047894e-02 -2.861592e+00 -4.483864e+00 -1.636498e+00 -1.956933e+00 2.731476e-01 7.606032e-01 -8.786538e-01 3.524381e+00 8.382714e-01 2.343260e-01 -5.565234e-01 5.244806e-01 -1.964339e-01 3.972940e-01 -3.768117e-01 -5.022463e-01 -4.022455e-01 -3.496504e-01 -1.734816e-01 1.101722e-01 -2.459419e-01 -1.502644e-02 -9.135328e-02 -1.648422e-01 3.049191e-01 7.260621e-02 2.297601e-02 -1.638940e-02 -1.809371e-01 -1.024235e-01 -2.031863e-01 -2.261203e-01 -1.633814e-01 -3.584181e-01 -6.608957e-03
<VARIANCE> 39
 1.640963e+01 3.957087e+01 2.078259e+01 1.725976e+01 2.195801e+01 2.005390e+01 2.026522e+01 1.657434e+01 2.190112e+01 3.753540e+01 4.637753e+01 3.636805e+01 9.222378e-03 5.833853e-01 4.773104e-01 9.830476e-01 1.557762e+00 1.552375e+00 1.365008e+00 1.639020e+00 1.972797e+00 1.749800e+00 1.739036e+00 1.826510e+00 2.526806e+00 6.979172e-05 1.235682e-01 8.082399e-02 1.832739e-01 1.270736e-01 2.079195e-01 2.486001e-01 2.619148e-01 2.957869e-01 2.984717e-01 3.907749e-01 3.984128e-01 3.067183e-01 2.093430e-05
<GCONST> 7.062905e+01
<STATE> 7
<NUMMIXES> 6
<MIXTURE> 1 9.387293e-02
<MEAN> 39
 -2.790992e+00 1.191397e+01 -6.230438e+00 -7.799279e+00 -3.663548e+00 -1.435005e+01 -2.799909e-01 -4.920353e+00 -3.705026e+00 -3.194792e+00 -5.560961e+00 -1.425107e+00 8.853443e-01 6.026294e-01 -1.308630e+00 2.459751e+00 -1.806851e+00 2.154953e+00 4.547094e-01 8.515610e-01 1.998604e+00 5.184717e-01 7.828650e-01 1.024632e+00 -7.793866e-01 -1.632568e-02 4.869530e-01 -2.392756e-01 7.117661e-01 8.048169e-01 -6.881411e-02 1.299390e+00 -2.186443e-01 5.861058e-01 8.259408e-02 2.699541e-01 2.599374e-01 2.857317e-01 -1.125412e-02
<VARIANCE> 39
 6.988547e+00 2.287386e+01 7.502110e+00 1.229133e+01 1.498846e+01 1.334976e+01 1.161520e+01 2.253541e+01 2.112509e+01 1.831947e+01 2.265189e+01 3.491206e+01 3.665747e-03 4.570024e-01 1.025661e+00 2.131423e+00 2.562041e+00 1.503595e+00 1.711191e+00 2.169133e+00 1.982719e+00 2.048411e+00 1.775089e+00 1.599399e+00 1.935907e+00 1.745524e-04 1.249612e-01 2.565193e-01 2.040136e-01 3.438160e-01 5.776361e-01 2.270004e-01 2.834475e-01 3.002242e-01 3.756051e-01 3.844462e-01 2.701303e-01 2.947025e-01 6.761527e-05
<GCONST> 7.161551e+01
<MIXTURE> 2 9.877665e-02
<MEAN> 39
 -9.968784e-01 1.226129e+01 -3.245908e+00 -5.093563e+00 -5.345453e+00 -9.362518e+00 -4.917546e+00 -8.930217e-01 -2.017810e+00 -3.819635e+00 -3.123979e+00 -4.197703e+00 8.526242e-01 4.784794e-01 -5.924945e-01 1.238027e+00 -3.005506e-01 1.636899e+00 7.191582e-01 6.159521e-01 4.074695e-01 7.188944e-01 2.069311e-01 9.907472e-01 -1.936357e-01 -2.030633e-02 1.830151e-01 -1.713333e-01 4.168866e-01 5.329092e-01 3.182871e-01 7.605744e-01 1.566098e-01 3.978259e-02 -2.401531e-02 2.665446e-01 1.393062e-01 4.269354e-01 -9.540794e-03
<VARIANCE> 39
 2.371987e+01 2.939363e+01 1.901388e+01 3.084472e+01 1.694564e+01 2.276049e+01 3.982457e+01 3.612444e+01 2.789996e+01 2.526453e+01 2.506837e+01 4.154074e+01 5.042826e-03 8.525136e-01 1.125484e+00 1.255426e+00 2.020722e+00 1.992291e+00 1.850022e+00 3.735092e+00 3.197000e+00 3.928709e+00 2.717268e+00 2.880309e+00 2.834940e+00 2.474258e-04 1.621597e-01 2.330741e-01 1.684464e-01 3.575723e-01 2.788125e-01 2.713684e-01 5.386071e-01 4.466095e-01 5.324312e-01 3.763090e-01 3.600788e-01 4.045912e-01 6.487977e-05
<GCONST> 8.361055e+01
<MIXTURE> 3 3.924703e-01
<MEAN> 39
 -7.654600e-01 1.247998e+01 1.200847e+00 -4.666320e+00 -2.938606e+00 -5.204657e+00 -7.632625e+00 -5.365234e-01 2.488839e-01 -2.568748e+00 2.937576e+00 -2.357163e+00 8.430872e-01 7.001218e-01 -1.054132e+00 7.685654e-01 -4.889432e-01 7.051619e-01 6.294191e-01 9.733695e-01 3.562891e-01 1.216178e-01 4.454365e-01 -7.693172e-01 2.634679e-01 -2.308197e-02 1.343021e-01 -1.686187e-01 9.196433e-02 5.531453e-01 1.020638e-01 4.539678e-01 2.871009e-01 6.672744e-02 -1.207584e-01 -9.732866e-03 -2.000566e-01 -5.909555e-03 -9.397014e-03
<VARIANCE> 39
 1.271199e+01 3.826627e+01 1.571313e+01 2.750378e+01 1.552344e+01 1.891994e+01 2.527571e+01 1.818442e+01 3.025333e+01 2.521268e+01 2.400344e+01 1.815391e+01 6.214550e-03 5.647982e-01 1.162411e+00 1.657118e+00 1.921576e+00 1.301153e+00 1.092635e+00 2.210004e+00 1.860759e+00 1.684760e+00 1.926985e+00 1.788366e+00 2.098885e+00 2.439245e-04 9.768846e-02 1.505735e-01 1.357604e-01 2.102932e-01 2.468478e-01 2.705360e-01 2.136211e-01 2.421998e-01 3.190250e-01 2.554459e-01 3.229676e-01 1.983392e-01 5.227846e-05
<GCONST> 7.150679e+01
<MIXTURE> 4 1.242490e-01
<MEAN> 39
 -3.664074e+00 1.086278e+01 -5.460614e+00 -4.917280e+00 -4.676157e+00 -8.672160e+00 3.234719e-01 -7.183526e-01 6.208986e+00 1.017325e+01 1.043562e+01 1.334424e+01 8.961258e-01 5.152689e-01 -9.070769e-01 1.028445e+00 -8.024147e-01 9.389685e-01 -2.553199e-01 -1.857631e-01 4.506626e-01 -9.571655e-01 -6.968359e-01 -1.781946e+00 -1.987820e+00 -2.539961e-02 4.673149e-01 -2.082942e-01 4.044144e-01 4.251660e-01 3.752651e-02 5.919155e-01 -6.285213e-03 7.697453e-02 -4.035310e-01 -7.702529e-01 -5.576118e-01 -7.742973e-01 -1.400018e-02
<VARIANCE> 39
 1.888268e+01 1.933548e+01 2.477431e+01 1.052348e+01 2.778080e+01 2.425316e+01 3.322278e+01 3.627959e+01 6.726691e+01 6.737266e+01 3.305915e+01 7.506607e+01 5.174013e-03 1.263260e+00 1.340056e+00 1.880256e+00 2.220971e+00 2.233302e+00 9.709750e-01 2.277801e+00 1.907805e+00 1.690548e+00 3.500035e+00 3.825597e+00 4.156237e+00 3.114800e-04 1.613361e-01 3.212507e-01 3.483947e-01 2.525618e-01 6.052135e-01 4.058117e-01 5.206783e-01 3.755402e-01 4.064926e-01 5.452830e-01 3.676631e-01 5.690802e-01 9.518262e-05
<GCONST> 8.763153e+01
<MIXTURE> 5 9.877637e-02
<MEAN> 39
 -9.970532e-01 1.226120e+01 -3.245113e+00 -5.094669e+00 -5.345265e+00 -9.363332e+00 -4.918978e+00 -8.933791e-01 -2.018173e+00 -3.820052e+00 -3.123827e+00 -4.199233e+00 8.526246e-01 4.783866e-01 -5.925511e-01 1.238097e+00 -3.004555e-01 1.636854e+00 7.192490e-01 6.157991e-01 4.073172e-01 7.188436e-01 2.067919e-01 9.907967e-01 -1.935061e-01 -2.030683e-02 1.829801e-01 -1.712776e-01 4.168594e-01 5.330664e-01 3.182893e-01 7.606372e-01 1.567318e-01 3.984722e-02 -2.396715e-02 2.665735e-01 1.393185e-01 4.270533e-01 -9.542190e-03
<VARIANCE> 39
 2.371776e+01 2.939079e+01 1.901514e+01 3.085332e+01 1.694538e+01 2.276480e+01 3.982428e+01 3.612572e+01 2.790136e+01 2.526645e+01 2.507128e+01 4.154235e+01 5.042335e-03 8.524963e-01 1.125322e+00 1.255367e+00 2.020633e+00 1.992144e+00 1.850304e+00 3.734473e+00 3.196567e+00 3.928273e+00 2.717221e+00 2.880286e+00 2.835478e+00 2.474115e-04 1.621695e-01 2.330751e-01 1.684409e-01 3.576447e-01 2.787691e-01 2.713813e-01 5.386145e-01 4.466427e-01 5.325343e-01 3.763169e-01 3.601238e-01 4.045835e-01 6.488858e-05
<GCONST> 8.361127e+01
<MIXTURE> 6 1.918538e-01
<MEAN> 39
 2.321152e+00 9.198089e+00 -3.277640e+00 -8.011374e-01 -1.003472e+00 -7.304217e+00 -1.175462e+00 -2.669070e+00 -8.004280e-01 2.719299e-01 -1.472318e+00 2.095648e+00 8.284336e-01 2.029009e-01 -8.120900e-01 1.387369e+00 -4.517523e-01 5.888559e-01 -2.612008e-01 -3.969201e-01 -7.228114e-03 -5.706599e-01 -2.468034e-01 -2.332950e-02 -7.108836e-01 -1.837842e-02 -8.033331e-02 -1.323764e-01 4.889501e-01 2.889101e-01 -1.017087e-01 5.059756e-01 -1.933988e-01 5.986647e-02 -3.851710e-02 -1.741818e-01 -8.022778e-02 -2.531857e-01 -8.743671e-03
<VARIANCE> 39
 2.806699e+01 4.924224e+01 1.757358e+01 3.652692e+01 3.123432e+01 4.362054e+01 3.158321e+01 3.894082e+01 2.291249e+01 2.615652e+01 4.079235e+01 3.127337e+01 1.094187e-02 7.182819e-01 9.958282e-01 1.203388e+00 3.419227e+00 1.711179e+00 1.498305e+00 2.590300e+00 2.788742e+00 1.464309e+00 2.608620e+00 2.163497e+00 2.465143e+00 1.898547e-04 1.892949e-01 1.630291e-01 2.045743e-01 2.720428e-01 3.879762e-01 4.290440e-01 4.100828e-01 4.661321e-01 3.091064e-01 3.476858e-01 3.494510e-01 3.363542e-01 4.674020e-05
<GCONST> 8.302290e+01
<STATE> 8
<NUMMIXES> 6
<MIXTURE> 1 7.217032e-02
<MEAN> 39
 -1.061878e+00 1.240061e+01 -3.815056e+00 -8.512606e+00 -2.390935e+00 -9.039641e+00 3.247594e+00 5.289885e+00 5.140002e+00 5.970235e+00 2.974671e+00 2.508642e+00 8.308059e-01 1.112077e+00 -1.212033e+00 1.435255e+00 -7.681005e-01 2.420268e+00 1.970040e+00 1.393383e+00 1.735914e+00 1.958488e-01 -2.826527e-01 -2.704694e-01 -1.538891e+00 -4.796322e-02 -7.112317e-02 -3.220364e-01 1.929998e-01 7.582343e-01 1.732484e-01 1.216583e+00 -2.277232e-01 -5.487188e-01 -5.438764e-01 -6.005390e-01 2.614606e-02 2.786236e-01 -2.072988e-02
<VARIANCE> 39
 9.829017e+00 4.089730e+01 1.567148e+01 2.915258e+01 2.395457e+01 1.351440e+01 3.393579e+01 3.269090e+01 6.649950e+01 5.636198e+01 4.890714e+01 7.995753e+01 5.503130e-03 1.477522e+00 1.570201e+00 2.155578e+00 3.111645e+00 2.090213e+00 2.411578e+00 5.788951e+00 7.213726e+00 7.174847e+00 5.941404e+00 7.320552e+00 5.167387e+00 6.424700e-04 2.366462e-01 5.880916e-01 1.636457e-01 5.040886e-01 5.309212e-01 2.095671e-01 6.500471e-01 6.129063e-01 7.020708e-01 4.717247e-01 5.623083e-01 6.926558e-01 2.189256e-04
<GCONST> 9.795908e+01
<MIXTURE> 2 1.446832e-01
<MEAN> 39
 1.921237e+00 9.655877e+00 -2.168112e+00 -3.781497e+00 -1.460071e+00 -7.635199e+00 -2.727531e+00 -2.671920e+00 -2.378178e+00 -1.042626e+00 -1.872687e+00 -1.134965e+00 8.303193e-01 8.046011e-01 -5.414962e-01 1.866837e+00 1.120656e+00 1.313705e+00 1.294221e+00 2.252152e-01 2.321153e-01 -4.313171e-03 4.990502e-02 2.197041e-02 -8.853751e-01 -4.169025e-02 -3.337240e-01 -1.176315e-01 3.102297e-01 7.872229e-01 8.673389e-02 6.531540e-01 1.260020e-01 2.455574e-01 1.295809e-01 1.230797e-01 2.408938e-01 3.376323e-01 -1.731254e-02
<VARIANCE> 39
 1.294249e+01 3.297796e+01 1.785123e+01 2.959589e+01 2.422742e+01 2.439977e+01 2.890531e+01 3.498974e+01 2.501905e+01 2.499461e+01 2.634785e+01 5.001100e+01 5.882781e-03 1.189861e+00 8.819748e-01 2.177680e+00 1.504869e+00 1.969294e+00 2.147885e+00 2.822640e+00 2.768363e+00 2.470067e+00 2.556144e+00 4.220637e+00 4.188133e+00 2.926516e-04 1.709445e-01 2.120891e-01 2.730258e-01 4.113662e-01 3.588214e-01 3.971050e-01 4.018463e-01 4.881463e-01 3.523785e-01 4.211029e-01 3.897237e-01 4.030463e-01 1.421679e-04
<GCONST> 8.540398e+01
<MIXTURE> 3 3.991006e-01
<MEAN> 39
 1.565734e+00 1.101088e+01 2.559301e+00 -2.641522e+00 -2.474846e+00 -3.916167e+00 -5.672362e+00 -1.622365e-01 3.120106e-01 -1.946557e+00 1.834065e+00 -1.614661e+00 7.821362e-01 6.442547e-01 -5.500355e-01 1.071961e+00 9.376941e-01 1.004514e+00 1.081000e+00 8.887590e-01 5.324759e-02 -1.149213e-01 1.948519e-01 -4.145589e-01 3.000897e-01 -3.712702e-02 -2.193896e-01 -4.388521e-02 -1.194008e-01 5.017451e-01 2.134457e-01 2.755223e-01 1.252807e-01 -5.984559e-02 -9.623683e-02 -2.776912e-02 -3.281206e-02 8.730221e-03 -1.038706e-02
<VARIANCE> 39
 2.037612e+01 3.710650e+01 2.021751e+01 4.571480e+01 2.000063e+01 2.251788e+01 3.150146e+01 2.548555e+01 3.019341e+01 3.017103e+01 2.693047e+01 2.276674e+01 7.325250e-03 1.055752e+00 9.126486e-01 1.679484e+00 1.178563e+00 1.609284e+00 1.742358e+00 2.856019e+00 1.985610e+00 2.030899e+00 2.266646e+00 2.082251e+00 1.911692e+00 3.465131e-04 1.130093e-01 1.770153e-01 1.711008e-01 3.564968e-01 2.531218e-01 2.890741e-01 3.251552e-01 3.501626e-01 3.275796e-01 3.569652e-01 2.980035e-01 3.377426e-01 1.034038e-04
<GCONST> 7.948621e+01
<MIXTURE> 4 6.998906e-02
<MEAN> 39
 -4.587613e+00 7.832331e+00 -3.690375e+00 -1.211711e+01 2.016300e+00 -7.180059e+00 3.497074e+00 6.120909e+00 3.028634e+00 4.401005e+00 2.309026e+00 1.922864e-01 8.409182e-01 1.555943e-01 -3.506531e+00 1.209147e+00 -1.911161e+00 9.374918e-01 3.438041e+00 1.769809e-01 5.673389e-01 -8.286597e-01 -1.544783e+00 1.961718e-01 -1.485969e-01 -1.620737e-02 2.940385e-01 -5.215772e-01 1.128386e-01 1.044360e+00 -8.491768e-01 9.144809e-01 -2.903340e-01 -1.055451e+00 -3.986358e-01 -7.226877e-01 -2.779196e-01 4.632293e-01 -2.162029e-03
<VARIANCE> 39
 1.578580e+01 1.651469e+01 3.686445e+01 1.985385e+01 2.024274e+01 2.526040e+01 6.650156e+01 2.951379e+01 4.272914e+01 4.199411e+01 4.844260e+01 1.066974e+02 7.769509e-03 8.938870e-01 1.229931e+00 3.059338e+00 1.028006e+00 3.961248e+00 3.610836e+00 4.992155e+00 3.093078e+00 6.198422e+00 6.917192e+00 6.160539e+00 3.968600e+00 7.326981e-04 2.110786e-01 1.687999e-01 3.803295e-01 5.851138e-01 7.385070e-01 3.441096e-01 9.254575e-01 7.280383e-01 1.004797e+00 7.562864e-01 6.545203e-01 1.007448e+00 3.529707e-05
<GCONST> 9.767007e+01
<MIXTURE> 5 1.446767e-01
<MEAN> 39
 1.921632e+00 9.655209e+00 -2.168969e+00 -3.780518e+00 -1.459770e+00 -7.634028e+00 -2.727381e+00 -2.672087e+00 -2.377961e+00 -1.042322e+00 -1.873172e+00 -1.134534e+00 8.303114e-01 8.047453e-01 -5.413619e-01 1.866638e+00 1.120482e+00 1.313703e+00 1.294100e+00 2.253088e-01 2.319410e-01 -4.293285e-03 4.985069e-02 2.176382e-02 -8.855032e-01 -4.168831e-02 -3.336616e-01 -1.175566e-01 3.103172e-01 7.870604e-01 8.666102e-02 6.529829e-01 1.259921e-01 2.455061e-01 1.296211e-01 1.230267e-01 2.409429e-01 3.376036e-01 -1.730932e-02
<VARIANCE> 39
 1.294425e+01 3.298052e+01 1.785280e+01 2.959216e+01 2.423194e+01 2.439882e+01 2.890995e+01 3.499048e+01 2.502166e+01 2.499495e+01 2.635032e+01 5.001114e+01 5.883104e-03 1.189814e+00 8.819329e-01 2.178127e+00 1.504817e+00 1.969253e+00 2.147739e+00 2.822696e+00 2.768340e+00 2.469837e+00 2.556100e+00 4.220667e+00 4.188455e+00 2.926766e-04 1.709338e-01 2.120622e-01 2.730419e-01 4.112920e-01 3.588250e-01 3.970616e-01 4.018552e-01 4.881203e-01 3.523808e-01 4.210929e-01 3.897591e-01 4.030607e-01 1.421761e-04
<GCONST> 8.540456e+01
<MIXTURE> 6 1.693802e-01
<MEAN> 39
 -2.966312e+00 9.115747e+00 1.831338e+00 -1.204897e+01 -4.535913e-01 -7.913439e+00 -4.514099e+00 1.130931e+00 -1.479386e-01 -6.584603e-01 -3.214016e-01 -1.044788e+00 8.861729e-01 8.679848e-01 -2.758748e+00 1.824441e+00 -1.304117e+00 -5.590311e-01 2.025060e+00 4.321498e-01 1.222719e+00 -7.137623e-02 3.386645e-01 -9.611737e-01 -2.069168e-01 -1.193795e-02 3.476793e-01 -2.362896e-01 -2.318098e-01 1.289955e+00 -6.727822e-01 5.727196e-01 1.172886e-01 -2.292695e-01 2.255659e-03 -2.272321e-01 -6.717716e-02 -8.143877e-02 -5.193270e-03
<VARIANCE> 39
 1.311628e+01 3.405309e+01 2.182236e+01 1.912503e+01 2.317871e+01 3.610323e+01 3.641766e+01 2.924858e+01 2.525726e+01 2.116928e+01 3.133756e+01 1.470274e+01 5.721861e-03 6.371896e-01 1.367553e+00 2.323284e+00 1.445400e+00 2.001216e+00 2.166211e+00 3.551086e+00 2.053536e+00 2.787651e+00 3.240325e+00 3.628100e+00 2.677426e+00 2.513039e-04 1.468003e-01 2.519558e-01 1.900165e-01 3.165049e-01 3.158341e-01 3.878581e-01 4.684524e-01 5.164936e-01 3.539692e-01 3.117981e-01 3.866819e-01 2.694362e-01 6.085396e-05
<GCONST> 8.167786e+01
<STATE> 9
<NUMMIXES> 6
<MIXTURE> 1 2.955364e-02
<MEAN> 39
 3.653835e+00 8.835037e+00 -9.330519e-01 -1.555712e+00 -3.472856e+00 -6.959531e+00 -4.064031e-01 -2.065813e+00 -1.272366e+00 2.564019e+00 3.820150e-01 4.993389e+00 7.926026e-01 -3.652303e-02 -5.617343e-01 2.734530e+00 2.037899e+00 2.239919e+00 2.588733e+00 1.166449e+00 1.511167e+00 -1.141798e+00 -7.789412e-01 -1.557049e+00 -2.603035e+00 -1.089865e-01 -1.071991e+00 -3.337937e-01 -4.942326e-02 6.107974e-01 5.743486e-01 9.760057e-01 2.718954e-01 3.968977e-01 5.002885e-01 4.146437e-01 4.846660e-01 2.851891e-01 -3.501294e-02
<VARIANCE> 39
 1.144228e+01 2.153014e+01 1.595957e+01 9.516294e+00 1.927083e+01 2.329828e+01 2.039321e+01 2.575476e+01 1.886557e+01 1.591383e+01 4.412897e+01 5.071813e+01 8.350782e-03 1.548745e+00 1.518783e+00 1.634695e+00 1.287002e+00 3.092038e+00 1.594721e+00 3.946004e+00 5.249172e+00 1.786925e+00 5.048710e+00 1.656316e+00 2.848624e+00 7.982288e-04 1.111218e-01 1.675923e-01 2.151069e-01 3.424856e-01 3.625772e-01 2.162410e-01 4.945302e-01 4.777566e-01 2.979780e-01 1.392574e-01 8.151049e-01 6.406890e-01 1.024861e-04
<GCONST> 8.245596e+01
<MIXTURE> 2 1.438811e-01
<MEAN> 39
 2.635705e+00 1.039037e+01 4.336427e+00 -2.276933e+00 -1.642402e+00 -4.398315e+00 -4.011221e+00 -6.483452e-01 -9.314867e-01 -1.477207e+00 -2.417282e-01 -1.698793e+00 7.587141e-01 -3.657437e-01 -1.015268e+00 1.634622e+00 2.758510e+00 1.553808e+00 2.433087e+00 6.433790e-01 5.590072e-01 6.787944e-02 2.806614e-01 3.173423e-01 2.247052e-01 -7.401351e-02 -8.373530e-01 -4.099300e-01 -5.678589e-01 4.453112e-01 1.727738e-01 4.387282e-01 2.678376e-01 2.952172e-01 1.904621e-01 1.600067e-01 2.875755e-01 3.084667e-01 -2.803570e-02
<VARIANCE> 39
 1.467269e+01 2.974970e+01 1.851300e+01 3.480567e+01 1.864007e+01 2.459252e+01 2.273938e+01 4.160313e+01 3.688683e+01 2.144328e+01 3.046828e+01 3.259180e+01 5.173563e-03 1.586864e+00 1.688535e+00 1.791437e+00 2.274188e+00 1.781208e+00 2.462882e+00 2.521096e+00 1.986864e+00 2.499655e+00 3.011016e+00 2.788661e+00 2.747992e+00 4.532194e-04 1.264524e-01 2.193880e-01 2.917863e-01 3.807455e-01 3.354211e-01 4.548987e-01 4.907728e-01 6.176731e-01 5.396238e-01 4.524330e-01 5.381479e-01 4.966802e-01 5.689624e-05
<GCONST> 8.599052e+01
<MIXTURE> 3 4.321669e-01
<MEAN> 39
 4.072074e+00 9.991778e+00 1.011104e+00 1.388545e+00 1.435559e+00 -2.621185e+00 -3.676773e+00 -1.119576e+00 -1.118858e+00 -1.423341e+00 -1.433599e+00 -2.068604e+00 7.125297e-01 2.429279e-01 -4.704097e-01 1.127940e+00 1.301803e+00 9.816430e-01 8.345551e-01 3.575420e-01 -4.954394e-01 -1.123841e-01 -2.481977e-01 -1.212883e-01 9.184898e-02 -3.863002e-02 -4.561557e-01 -1.799825e-01 -6.791809e-02 1.971396e-02 -1.529630e-01 -2.852675e-02 4.354864e-02 1.203653e-01 1.345885e-01 1.048357e-01 2.155211e-01 1.636698e-01 -7.041330e-03
<VARIANCE> 39
 1.430235e+01 4.414413e+01 2.492110e+01 3.189901e+01 3.325328e+01 2.308623e+01 3.999964e+01 2.497006e+01 2.954398e+01 2.819095e+01 3.674866e+01 3.153676e+01 1.320463e-02 9.965991e-01 8.750778e-01 1.633823e+00 1.589100e+00 1.923077e+00 2.307182e+00 2.522209e+00 2.190464e+00 1.923107e+00 2.127676e+00 2.738709e+00 2.370127e+00 5.748325e-04 1.405590e-01 1.964731e-01 3.921174e-01 2.647863e-01 4.057397e-01 3.684739e-01 5.183638e-01 4.255918e-01 4.053217e-01 4.558089e-01 4.479072e-01 4.398348e-01 1.557781e-04
<GCONST> 8.629413e+01
<MIXTURE> 4 9.209152e-02
<MEAN> 39
 5.204362e-01 7.932205e+00 -2.214990e+00 -8.235466e+00 1.243082e+00 -9.603705e-01 4.462286e+00 7.652971e+00 5.038252e+00 2.181374e+00 2.736573e+00 -1.673400e+00 6.969561e-01 1.550623e-01 -2.083907e+00 9.631901e-01 6.217101e-01 1.220665e+00 3.290676e+00 5.673128e-01 -8.202772e-01 -9.600517e-01 -2.159814e+00 -8.712101e-01 4.476403e-01 -6.089516e-02 -2.885455e-01 -1.585437e-01 -1.230101e-01 7.537823e-01 -3.258700e-01 -1.509255e-01 -3.855332e-01 -8.866446e-01 -3.586102e-01 1.888460e-01 -7.521592e-02 4.081270e-01 -3.601899e-03
<VARIANCE> 39
 1.783391e+01 2.713925e+01 2.783563e+01 6.289445e+01 3.199686e+01 4.097682e+01 6.698566e+01 3.615984e+01 5.402965e+01 8.486905e+01 5.323876e+01 3.852999e+01 9.283034e-03 1.260848e+00 3.113000e+00 2.669453e+00 1.837386e+00 2.599208e+00 5.180027e+00 4.604308e+00 4.102136e+00 5.853627e+00 6.110738e+00 7.074430e+00 8.919666e+00 2.016129e-03 2.133017e-01 3.133270e-01 4.884372e-01 5.879188e-01 5.222964e-01 5.611051e-01 8.889164e-01 8.958818e-01 1.828719e+00 1.718484e+00 1.403525e+00 9.135544e-01 3.872787e-04
<GCONST> 1.098158e+02
<MIXTURE> 5 1.438847e-01
<MEAN> 39
 2.635382e+00 1.039049e+01 4.336932e+00 -2.278080e+00 -1.642112e+00 -4.398277e+00 -4.011276e+00 -6.473379e-01 -9.307293e-01 -1.477285e+00 -2.412529e-01 -1.698975e+00 7.587198e-01 -3.657235e-01 -1.015244e+00 1.634525e+00 2.758734e+00 1.553794e+00 2.433316e+00 6.434056e-01 5.590414e-01 6.790059e-02 2.806060e-01 3.173453e-01 2.248393e-01 -7.401449e-02 -8.373638e-01 -4.098805e-01 -5.679388e-01 4.453889e-01 1.727309e-01 4.386707e-01 2.678089e-01 2.951217e-01 1.903611e-01 1.599929e-01 2.875670e-01 3.084383e-01 -2.803596e-02
<VARIANCE> 39
 1.467126e+01 2.974945e+01 1.851335e+01 3.480717e+01 1.863951e+01 2.459326e+01 2.273844e+01 4.160119e+01 3.689017e+01 2.144316e+01 3.046822e+01 3.259190e+01 5.173578e-03 1.587059e+00 1.688801e+00 1.791426e+00 2.274281e+00 1.781226e+00 2.463244e+00 2.521117e+00 1.986971e+00 2.499907e+00 3.011105e+00 2.788812e+00 2.748072e+00 4.532828e-04 1.264435e-01 2.194073e-01 2.918002e-01 3.807662e-01 3.354231e-01 4.549187e-01 4.907280e-01 6.176785e-01 5.396891e-01 4.524456e-01 5.381944e-01 4.967248e-01 5.690118e-05
<GCONST> 8.599184e+01
<MIXTURE> 6 1.584217e-01
<MEAN> 39
 -2.391890e+00 4.100049e+00 4.453635e+00 -1.228101e+01 -2.246015e+00 -3.087399e+00 -4.374003e+00 1.475691e+00 2.455709e-01 -1.842664e+00 -5.957329e-01 -3.614656e-01 8.616967e-01 1.232336e+00 -2.407671e+00 1.480009e+00 1.201904e+00 -1.604949e+00 2.286219e+00 4.723836e-01 -2.547916e-01 1.880093e-01 -3.012385e-01 -4.981009e-01 -4.643345e-02 -1.352509e-02 2.065359e-01 2.201928e-01 -8.421370e-01 1.291131e+00 -2.002248e-01 -4.134016e-01 3.701569e-01 -3.173585e-01 6.544461e-02 1.861113e-02 5.436270e-02 1.010076e-01 4.030128e-04
<VARIANCE> 39
 1.810397e+01 3.273024e+01 3.190887e+01 2.220520e+01 2.598411e+01 3.775490e+01 3.322411e+01 2.388514e+01 2.695497e+01 3.471350e+01 3.512737e+01 3.982865e+01 7.431754e-03 9.658040e-01 3.306866e+00 1.986750e+00 1.947847e+00 3.096426e+00 3.255103e+00 4.835734e+00 3.924951e+00 2.356810e+00 3.717530e+00 4.367662e+00 3.004913e+00 3.476304e-04 2.294686e-01 2.151705e-01 4.625959e-01 7.873018e-01 4.310631e-01 4.519435e-01 6.016122e-01 5.341479e-01 5.425588e-01 5.499220e-01 3.226354e-01 4.377508e-01 4.768832e-05
<GCONST> 9.201473e+01
<STATE> 10
<NUMMIXES> 6
<MIXTURE> 1 2.967198e-02
<MEAN> 39
 1.042006e+00 -7.611811e-01 5.008892e+00 -1.026197e+00 -4.983685e+00 -4.600356e+00 3.761333e+00 7.605982e-01 5.241982e-01 3.287109e+00 3.461783e+00 -2.761405e+00 7.329177e-01 1.160815e+00 -1.902482e+00 7.475097e-01 3.998451e+00 6.321700e-01 1.013445e+00 2.198947e+00 2.178576e+00 7.055863e-01 1.078771e-01 1.091064e-01 -6.916720e-01 -5.724988e-02 3.277649e-03 5.029085e-01 -8.887116e-01 2.244470e-01 1.236928e+00 5.148645e-02 -6.765894e-01 1.795937e-01 3.942764e-01 -3.235153e-01 -5.785198e-01 3.131043e-01 -5.965585e-03
<VARIANCE> 39
 1.461450e+01 1.624797e+01 2.818186e+01 7.631651e+01 8.337773e+01 4.289768e+01 6.861086e+01 2.314547e+01 3.222371e+01 5.733339e+01 5.384199e+01 5.208306e+01 2.180988e-02 5.519326e+00 8.530390e-01 4.314213e+00 3.021611e+00 6.969093e+00 4.875672e+00 3.747966e+00 1.327036e+00 3.219135e+00 2.915420e+00 7.649534e+00 7.108229e+00 2.782588e-03 2.749113e-01 3.758148e-01 1.001103e+00 3.697212e-01 8.804260e-01 6.967981e-01 1.084975e+00 6.247361e-01 7.361338e-01 4.211811e-01 1.138593e+00 5.755832e-01 2.430645e-04
<GCONST> 1.075487e+02
<MIXTURE> 2 1.550975e-01
<MEAN> 39
 2.730933e+00 8.005807e+00 4.788399e+00 4.260917e+00 -2.536744e-01 -3.373138e+00 -5.095511e+00 -4.403466e+00 -3.819960e+00 -8.259290e-01 -4.407471e-01 4.368954e-01 6.157872e-01 -1.742012e+00 -1.887901e+00 1.171750e+00 1.691521e+00 1.769508e+00 2.426501e+00 1.268307e+00 1.498336e+00 7.438981e-01 7.170628e-01 6.778771e-01 9.726772e-02 -1.126041e-01 -5.671816e-01 -4.534787e-01 -5.392178e-01 -1.763430e-01 1.966046e-01 4.543829e-01 7.359872e-01 8.761575e-01 6.739860e-01 3.657036e-01 1.392920e-01 1.159930e-01 -1.867051e-02
<VARIANCE> 39
 2.194655e+01 3.580928e+01 1.714360e+01 2.061247e+01 2.032866e+01 2.341216e+01 2.807220e+01 3.285432e+01 2.764822e+01 2.146629e+01 3.566917e+01 3.050539e+01 1.183601e-02 1.035846e+00 1.446444e+00 1.618836e+00 2.187196e+00 1.944605e+00 2.497255e+00 2.341969e+00 2.979755e+00 2.872416e+00 3.365067e+00 2.632325e+00 2.589895e+00 1.303499e-03 2.592672e-01 2.241836e-01 2.409740e-01 2.708052e-01 3.437598e-01 3.221526e-01 4.545316e-01 5.994895e-01 4.648918e-01 5.289450e-01 4.343171e-01 5.368228e-01 1.544783e-04
<GCONST> 8.817277e+01
<MIXTURE> 3 3.205144e-01
<MEAN> 39
 2.059054e+00 1.162927e+01 5.712603e+00 4.113873e+00 3.301322e+00 4.656486e-01 -1.774126e+00 -5.485104e-01 -5.891217e-01 -3.567446e+00 -4.798719e-01 -2.869021e+00 6.246210e-01 -1.286755e+00 -1.486973e+00 -1.276830e-02 2.049360e+00 1.078324e+00 1.417067e+00 7.424064e-01 1.627796e-01 2.154432e-01 4.080445e-01 5.082178e-01 9.218795e-01 -9.311951e-02 -7.832491e-01 -6.281766e-01 -7.286353e-01 -6.109723e-01 -4.722204e-01 -3.545401e-01 -1.175694e-01 2.462415e-01 4.035754e-01 5.046001e-01 4.462018e-01 3.497424e-01 -1.451324e-02
<VARIANCE> 39
 1.417249e+01 3.725206e+01 2.135297e+01 3.341139e+01 3.039969e+01 2.626554e+01 3.066814e+01 3.018901e+01 3.933867e+01 3.604155e+01 3.532718e+01 3.404819e+01 1.007778e-02 1.265696e+00 2.269913e+00 2.083275e+00 2.461638e+00 1.965752e+00 2.620405e+00 2.445382e+00 2.245253e+00 2.478921e+00 3.028725e+00 2.295510e+00 2.300694e+00 1.768514e-03 2.436461e-01 2.371899e-01 3.662844e-01 3.826519e-01 3.326523e-01 4.520205e-01 4.888028e-01 4.863193e-01 4.638055e-01 5.861572e-01 6.055866e-01 7.040696e-01 2.308237e-04
<GCONST> 9.248042e+01
<MIXTURE> 4 1.620125e-01
<MEAN> 39
 -1.678163e+00 -2.185415e+00 1.327526e+00 -1.002515e+01 -3.526890e+00 5.959041e+00 2.733190e+00 1.349185e+00 2.232731e+00 -1.292313e+00 -2.903108e+00 1.095032e+00 7.874587e-01 7.246969e-01 -3.083367e+00 -2.622921e-01 2.863253e+00 -1.222836e+00 1.370420e+00 1.508039e+00 -1.831947e+00 -1.211842e+00 1.168781e-01 -8.889585e-01 3.850621e-01 -1.409105e-02 6.641751e-02 4.887918e-01 -6.582560e-01 7.685834e-01 2.747212e-01 -1.362943e+00 -2.354117e-01 -1.170804e-01 -3.361708e-01 2.643145e-01 3.152134e-01 -1.992134e-01 6.935655e-03
<VARIANCE> 39
 1.080667e+01 2.824551e+01 3.217328e+01 2.227222e+01 6.146766e+01 5.196688e+01 6.049301e+01 5.110862e+01 3.753900e+01 4.940447e+01 6.026859e+01 4.004753e+01 2.303079e-02 1.307535e+00 1.873538e+00 1.562664e+00 2.092690e+00 3.333776e+00 3.877378e+00 6.059529e+00 4.428764e+00 6.572939e+00 3.306290e+00 4.051340e+00 3.709189e+00 1.614014e-03 1.509526e-01 1.609636e-01 5.863264e-01 4.178080e-01 8.332992e-01 5.052399e-01 7.821068e-01 7.661199e-01 9.798788e-01 1.158256e+00 1.285410e+00 8.490167e-01 1.745702e-04
<GCONST> 1.039707e+02
<MIXTURE> 5 1.550989e-01
<MEAN> 39
 2.730407e+00 8.005609e+00 4.788831e+00 4.261212e+00 -2.534712e-01 -3.372894e+00 -5.095299e+00 -4.403085e+00 -3.819968e+00 -8.260382e-01 -4.409297e-01 4.364592e-01 6.157902e-01 -1.742064e+00 -1.887964e+00 1.171705e+00 1.691580e+00 1.769628e+00 2.426634e+00 1.268368e+00 1.498387e+00 7.438735e-01 7.170583e-01 6.779168e-01 9.733832e-02 -1.126050e-01 -5.671473e-01 -4.534669e-01 -5.392729e-01 -1.763879e-01 1.965724e-01 4.543498e-01 7.359620e-01 8.760994e-01 6.739821e-01 3.657123e-01 1.393259e-01 1.160413e-01 -1.867107e-02
<VARIANCE> 39
 2.194751e+01 3.580711e+01 1.714261e+01 2.061138e+01 2.032845e+01 2.341161e+01 2.807100e+01 3.285334e+01 2.764772e+01 2.146558e+01 3.566822e+01 3.050602e+01 1.183600e-02 1.035844e+00 1.446411e+00 1.618903e+00 2.187389e+00 1.944535e+00 2.497239e+00 2.341962e+00 2.979702e+00 2.872320e+00 3.364821e+00 2.632116e+00 2.589860e+00 1.303474e-03 2.592446e-01 2.241715e-01 2.409633e-01 2.707994e-01 3.437640e-01 3.221449e-01 4.545218e-01 5.994574e-01 4.648704e-01 5.289179e-01 4.342858e-01 5.368271e-01 1.544644e-04
<GCONST> 8.817177e+01
<MIXTURE> 6 1.776048e-01
<MEAN> 39
 1.180001e+00 9.028452e+00 4.403111e+00 -3.443793e+00 -4.475237e-01 3.288091e-01 -4.333381e+00 -9.893573e-01 -4.250707e-01 -3.232046e+00 -2.028213e-01 -9.855465e-01 7.267351e-01 6.088576e-02 -1.083853e-01 1.471571e-01 8.420247e-01 2.292713e-01 4.334046e-01 4.237870e-01 1.229571e-01 8.780679e-02 1.339188e-01 1.435497e-01 3.213214e-01 -2.269172e-02 -5.062978e-01 7.079896e-02 -7.384433e-01 -3.473683e-01 -3.314553e-01 -6.853834e-01 2.362726e-01 1.604239e-01 2.171782e-01 3.183978e-01 1.228816e-01 -3.964393e-02 1.207303e-02
<VARIANCE> 39
 1.417404e+01 3.366789e+01 3.568669e+01 2.389018e+01 2.987527e+01 3.352217e+01 2.788640e+01 2.906407e+01 2.684268e+01 3.319517e+01 2.833082e+01 2.025778e+01 1.390683e-02 5.268197e-01 1.139065e+00 1.124219e+00 2.558818e+00 1.452598e+00 1.575208e+00 1.776851e+00 1.816199e+00 2.151837e+00 1.861690e+00 1.823207e+00 1.716181e+00 1.162022e-03 1.924993e-01 2.337695e-01 6.027082e-01 4.115477e-01 5.750946e-01 5.292869e-01 6.716352e-01 6.118665e-01 5.008097e-01 6.733046e-01 4.903359e-01 4.382054e-01 1.972362e-04
<GCONST> 8.765608e+01
<STATE> 11
<NUMMIXES> 6
<MIXTURE> 1 1.084682e-01
<MEAN> 39
 -2.821205e-01 5.408266e+00 5.707589e+00 6.038249e+00 2.374700e+00 1.190107e+00 -2.646361e+00 -2.374576e+00 -1.804909e+00 1.046901e+00 1.014307e+00 8.582897e-01 4.325194e-01 -2.766386e+00 -2.749371e+00 5.399893e-02 1.521441e+00 2.056406e+00 3.358583e+00 3.099500e+00 3.482405e+00 2.440145e+00 2.207728e+00 1.441053e+00 3.436935e-01 -1.449304e-01 -1.728346e-01 -1.593808e-02 -5.941736e-01 -2.391745e-01 3.535885e-03 -2.373950e-02 5.086997e-01 5.582809e-01 3.973531e-01 1.270042e-01 -8.388647e-02 4.209743e-02 9.664505e-03
<VARIANCE> 39
 2.163790e+01 3.236698e+01 1.485875e+01 1.768727e+01 1.536446e+01 3.017348e+01 2.540420e+01 3.443705e+01 3.260978e+01 3.090275e+01 3.932692e+01 2.362057e+01 1.763174e-02 1.208016e+00 1.704371e+00 1.089518e+00 1.548797e+00 2.136103e+00 1.646470e+00 1.901805e+00 2.673214e+00 2.124468e+00 2.715845e+00 2.856888e+00 4.058222e+00 1.099807e-03 2.389862e-01 3.453164e-01 2.454148e-01 2.469873e-01 2.937365e-01 3.204213e-01 3.321847e-01 4.584020e-01 4.108189e-01 5.145947e-01 4.613865e-01 4.018688e-01 4.746845e-04
<GCONST> 8.750919e+01
<MIXTURE> 2 1.313069e-01
<MEAN> 39
 -2.536059e+00 2.607495e+00 5.868496e+00 8.118988e+00 6.778507e+00 4.066264e+00 9.002082e-01 1.510561e+00 -1.025876e+00 -6.815144e-01 -5.493513e-01 -1.070862e+00 4.651060e-01 -2.022049e+00 -2.529325e+00 -5.409526e-02 9.838987e-01 1.564429e+00 2.255968e+00 1.509777e+00 1.538192e+00 1.032650e+00 8.213565e-01 4.768648e-01 4.914219e-01 -1.150453e-01 8.653038e-02 8.444803e-02 -5.633253e-01 -8.337867e-01 -6.285571e-01 -5.507874e-01 -5.979004e-02 8.269196e-02 3.156393e-01 2.935232e-01 1.816270e-01 1.204971e-01 4.997510e-03
<VARIANCE> 39
 2.506589e+01 3.174040e+01 1.372045e+01 2.186591e+01 2.449551e+01 2.573301e+01 2.955298e+01 2.829444e+01 3.735123e+01 3.429358e+01 3.902995e+01 2.917742e+01 2.981481e-02 1.189846e+00 1.411497e+00 2.607502e+00 1.841039e+00 2.153446e+00 2.389290e+00 2.703934e+00 3.067108e+00 2.703267e+00 3.131857e+00 3.428682e+00 4.669559e+00 1.615935e-03 1.276934e-01 2.988306e-01 2.363399e-01 4.117469e-01 3.708344e-01 4.471817e-01 4.677989e-01 4.009488e-01 4.532040e-01 6.079599e-01 4.397693e-01 3.295304e-01 5.099770e-04
<GCONST> 9.236966e+01
<MIXTURE> 3 2.679372e-01
<MEAN> 39
 -1.668061e+00 9.541705e+00 2.605510e+00 7.667563e-01 2.973925e-01 -3.698663e-01 -2.546528e+00 1.424851e+00 1.659774e+00 -6.166993e-01 4.031959e+00 1.024232e+00 3.561656e-01 -1.968465e+00 -2.610655e+00 -9.366854e-01 2.697700e-01 7.292778e-02 6.821797e-01 7.009022e-01 7.743351e-01 9.705901e-01 9.235896e-01 6.031436e-01 5.784675e-01 -1.146537e-01 -8.489893e-02 -3.030966e-01 -6.356043e-02 -2.631972e-01 -5.996960e-02 2.044841e-02 1.348189e-01 6.958426e-02 1.582024e-01 1.748671e-01 -2.086700e-01 -1.806766e-01 1.958104e-02
<VARIANCE> 39
 2.235207e+01 3.490353e+01 2.256553e+01 3.760900e+01 2.718918e+01 2.579289e+01 2.759499e+01 2.661788e+01 3.409536e+01 3.910899e+01 2.859066e+01 2.922317e+01 2.473087e-02 1.178628e+00 1.774295e+00 2.836052e+00 2.193216e+00 2.458490e+00 2.895952e+00 2.226933e+00 2.315832e+00 2.837220e+00 2.916412e+00 2.924455e+00 3.563077e+00 2.203989e-03 2.330981e-01 4.602908e-01 4.688547e-01 6.301032e-01 4.154976e-01 5.850195e-01 4.760189e-01 4.662200e-01 4.537093e-01 4.965109e-01 5.087043e-01 4.112808e-01 6.808802e-04
<GCONST> 9.624634e+01
<MIXTURE> 4 1.529303e-01
<MEAN> 39
 1.630894e+00 -5.888065e+00 9.313422e-01 -9.692436e-01 -8.770960e+00 -4.085725e+00 5.324658e+00 9.184063e-01 -2.302107e+00 2.769928e-01 -1.718974e+00 9.531060e-01 8.478831e-01 1.917692e+00 -1.620319e+00 -2.494061e+00 3.318123e+00 1.295642e+00 -1.980489e+00 -3.567167e-02 5.991650e-01 -4.784366e-01 -3.943717e-01 -2.998809e-01 -1.352447e-01 6.234934e-04 -8.629011e-02 8.954213e-01 -5.649402e-01 -7.306549e-01 1.323445e+00 -1.797579e-01 -1.111243e+00 -6.468417e-02 3.645867e-01 1.144925e-01 1.170220e-01 -2.562393e-01 3.521259e-03
<VARIANCE> 39
 1.459100e+01 2.547964e+01 2.708858e+01 2.874407e+01 3.426042e+01 9.335960e+01 4.959298e+01 4.618714e+01 3.270975e+01 3.694366e+01 4.180593e+01 5.624741e+01 1.336557e-02 1.400903e+00 1.093173e+00 1.982983e+00 2.542970e+00 4.071999e+00 3.529777e+00 5.627526e+00 4.404632e+00 5.848573e+00 3.221245e+00 2.842821e+00 2.472994e+00 4.581739e-04 8.773799e-02 2.284829e-01 4.203677e-01 5.336109e-01 7.641335e-01 1.240211e+00 5.384179e-01 8.333644e-01 6.656767e-01 7.564390e-01 6.905928e-01 5.244684e-01 8.546865e-05
<GCONST> 9.839402e+01
<MIXTURE> 5 1.313126e-01
<MEAN> 39
 -2.536409e+00 2.607575e+00 5.868559e+00 8.119202e+00 6.778770e+00 4.066409e+00 9.000466e-01 1.510584e+00 -1.026093e+00 -6.818913e-01 -5.492626e-01 -1.070838e+00 4.651197e-01 -2.022133e+00 -2.529430e+00 -5.426714e-02 9.839209e-01 1.564329e+00 2.255910e+00 1.509734e+00 1.538158e+00 1.032719e+00 8.214778e-01 4.770418e-01 4.916927e-01 -1.150459e-01 8.652526e-02 8.444025e-02 -5.633529e-01 -8.338509e-01 -6.286094e-01 -5.508319e-01 -5.979461e-02 8.268867e-02 3.156674e-01 2.935514e-01 1.816286e-01 1.205007e-01 4.996026e-03
<VARIANCE> 39
 2.506606e+01 3.174015e+01 1.372012e+01 2.186468e+01 2.449496e+01 2.573343e+01 2.955313e+01 2.829468e+01 3.735066e+01 3.429379e+01 3.902972e+01 2.917660e+01 2.981314e-02 1.189842e+00 1.411491e+00 2.607452e+00 1.841234e+00 2.153377e+00 2.389380e+00 2.703864e+00 3.067078e+00 2.703103e+00 3.131699e+00 3.428305e+00 4.669331e+00 1.615875e-03 1.276961e-01 2.988447e-01 2.363382e-01 4.117474e-01 3.708215e-01 4.471713e-01 4.677939e-01 4.009568e-01 4.532016e-01 6.079870e-01 4.397873e-01 3.295409e-01 5.099428e-04
<GCONST> 9.236929e+01
<MIXTURE> 6 2.080445e-01
<MEAN> 39
 4.383980e-01 7.083175e+00 2.854970e+00 -2.317306e+00 5.743278e-01 3.784866e-01 -2.760864e+00 -3.970319e-01 3.959328e-01 -2.080035e+00 3.465590e-01 1.185142e-01 7.305179e-01 -7.958392e-01 -3.419352e-01 -6.909742e-01 -2.673455e-01 -4.259862e-01 -7.515313e-01 4.657020e-01 3.820022e-01 8.079885e-01 1.012240e+00 6.190882e-01 3.644900e-01 1.668725e-02 -3.043460e-01 1.885566e-01 -5.500523e-01 -6.063351e-01 -2.669326e-01 -5.926265e-01 1.835147e-01 1.708346e-01 1.584829e-01 2.358663e-01 -4.451212e-02 -2.014863e-01 1.488617e-02
<VARIANCE> 39
 1.536485e+01 4.931414e+01 4.208054e+01 4.112595e+01 3.345797e+01 4.001068e+01 5.384606e+01 3.986497e+01 3.925024e+01 3.356591e+01 3.374770e+01 3.641307e+01 1.530807e-02 8.974372e-01 1.658584e+00 1.884434e+00 2.476244e+00 2.466344e+00 2.275816e+00 3.217794e+00 4.131673e+00 2.582200e+00 2.612339e+00 2.901557e+00 2.487726e+00 1.361986e-03 1.969915e-01 3.222948e-01 6.177607e-01 7.377329e-01 5.476679e-01 4.975159e-01 9.882007e-01 6.201996e-01 8.355965e-01 6.857302e-01 7.431624e-01 8.687867e-01 1.239928e-04
<GCONST> 9.896783e+01
<TRANSP> 12
 0.000000e+00 1.000000e+00 0.000000e+00 0.000000e+00 0.000000e+00 0.000000e+00 0.000000e+00 0.000000e+00 0.000000e+00 0.000000e+00 0.000000e+00 0.000000e+00
 0.000000e+00 7.698710e-01 2.301290e-01 0.000000e+00 0.000000e+00 0.000000e+00 0.000000e+00 0.000000e+00 0.000000e+00 0.000000e+00 0.000000e+00 0.000000e+00
 0.000000e+00 0.000000e+00 8.416480e-01 1.583520e-01 0.000000e+00 0.000000e+00 0.000000e+00 0.000000e+00 0.000000e+00 0.000000e+00 0.000000e+00 0.000000e+00
 0.000000e+00 0.000000e+00 0.000000e+00 7.507343e-01 2.492657e-01 0.000000e+00 0.000000e+00 0.000000e+00 0.000000e+00 0.000000e+00 0.000000e+00 0.000000e+00
 0.000000e+00 0.000000e+00 0.000000e+00 0.000000e+00 4.849499e-01 5.150501e-01 0.000000e+00 0.000000e+00 0.000000e+00 0.000000e+00 0.000000e+00 0.000000e+00
 0.000000e+00 0.000000e+00 0.000000e+00 0.000000e+00 0.000000e+00 2.725694e-01 7.274306e-01 0.000000e+00 0.000000e+00 0.000000e+00 0.000000e+00 0.000000e+00
 0.000000e+00 0.000000e+00 0.000000e+00 0.000000e+00 0.000000e+00 0.000000e+00 1.370758e-01 8.629242e-01 0.000000e+00 0.000000e+00 0.000000e+00 0.000000e+00
 0.000000e+00 0.000000e+00 0.000000e+00 0.000000e+00 0.000000e+00 0.000000e+00 0.000000e+00 1.926714e-01 8.073286e-01 0.000000e+00 0.000000e+00 0.000000e+00
 0.000000e+00 0.000000e+00 0.000000e+00 0.000000e+00 0.000000e+00 0.000000e+00 0.000000e+00 0.000000e+00 2.896538e-01 7.103462e-01 0.000000e+00 0.000000e+00
 0.000000e+00 0.000000e+00 0.000000e+00 0.000000e+00 0.000000e+00 0.000000e+00 0.000000e+00 0.000000e+00 0.000000e+00 2.697784e-01 7.302216e-01 0.000000e+00
 0.000000e+00 0.000000e+00 0.000000e+00 0.000000e+00 0.000000e+00 0.000000e+00 0.000000e+00 0.000000e+00 0.000000e+00 0.000000e+00 2.744183e-01 7.255818e-01
 0.000000e+00 0.000000e+00 0.000000e+00 0.000000e+00 0.000000e+00 0.000000e+00 0.000000e+00 0.000000e+00 0.000000e+00 0.000000e+00 0.000000e+00 0.000000e+00
<ENDHMM>
~h "#u"
<BEGINHMM>
<NUMSTATES> 12
<STATE> 2
<NUMMIXES> 6
<MIXTURE> 1 1.170358e-01
<MEAN> 39
 6.480724e+00 -6.221945e+00 -6.008196e+00 2.701063e+00 -4.918438e+00 -1.109110e+01 -1.613753e+00 4.504247e+00 -1.029876e+00 -4.608438e+00 -4.292171e+00 -3.284958e+00 8.982090e-01 1.608061e+00 3.292767e-01 -1.811287e+00 6.435908e-01 2.592311e+00 -2.196777e-01 -2.574609e+00 2.514563e-01 1.760160e+00 8.262125e-01 -5.030669e-01 -5.588868e-01 -8.299983e-03 -9.726564e-02 4.745026e-01 3.236628e-01 -8.246271e-01 2.817312e-01 1.243935e+00 -5.716012e-02 -9.655062e-01 1.854975e-01 7.924982e-01 2.758034e-01 -4.560533e-02 -6.919134e-04
<VARIANCE> 39
 1.556925e+01 2.186229e+01 2.910500e+01 2.265256e+01 2.468759e+01 3.463486e+01 4.074625e+01 5.520253e+01 2.966833e+01 3.345166e+01 3.683804e+01 5.155592e+01 3.495657e-03 6.533328e-01 9.281853e-01 2.194191e+00 2.274740e+00 2.910855e+00 3.218608e+00 3.598020e+00 4.198236e+00 2.553943e+00 2.805163e+00 2.329487e+00 3.638601e+00 9.953147e-05 7.045861e-02 1.734757e-01 2.505239e-01 5.845255e-01 3.965468e-01 4.395912e-01 8.729782e-01 8.168360e-01 5.671610e-01 3.585020e-01 4.927552e-01 5.806173e-01 1.137549e-05
<GCONST> 8.557336e+01
<MIXTURE> 2 1.080982e-01
<MEAN> 39
 9.597390e+00 -3.318795e+00 -9.388556e+00 1.185034e+00 3.271787e+00 -5.491937e+00 -5.919925e+00 1.095957e+00 3.863193e+00 3.128233e+00 -3.537803e+00 -4.378363e+00 8.596647e-01 1.139689e+00 1.025795e+00 -5.732228e-01 -1.022600e+00 1.163212e+00 2.068168e+00 -4.636505e-01 -1.805298e+00 1.287639e-03 1.955544e+00 1.228937e+00 -3.467110e-01 -8.714380e-03 -2.438616e-01 7.022455e-03 4.160450e-01 -2.531068e-01 -6.362650e-01 2.125483e-01 7.594806e-01 -1.251526e-01 -8.058631e-01 -3.280994e-01 4.073104e-01 3.926084e-01 6.461647e-05
<VARIANCE> 39
 1.294614e+01 2.381317e+01 2.521634e+01 1.936888e+01 2.054251e+01 3.535258e+01 3.247096e+01 3.712683e+01 2.731178e+01 3.370317e+01 3.387143e+01 3.310571e+01 6.503441e-03 4.019926e-01 6.202198e-01 1.281064e+00 1.384014e+00 2.525678e+00 2.202176e+00 2.980708e+00 2.514259e+00 2.922141e+00 2.057068e+00 2.600992e+00 2.852521e+00 1.433515e-04 5.657482e-02 1.196888e-01 2.031936e-01 3.620091e-01 3.343568e-01 4.933648e-01 4.487118e-01 5.768163e-01 3.614781e-01 5.168929e-01 4.605820e-01 4.041697e-01 1.808898e-05
<GCONST> 7.891772e+01
<MIXTURE> 3 3.337918e-01
<MEAN> 39
 1.132668e+01 1.425812e+00 -9.071739e+00 -3.362540e+00 3.241004e+00 -3.210883e-01 -2.546933e+00 -1.574915e+00 -8.918252e-01 5.087683e+00 1.995028e+00 -9.172261e-01 8.014356e-01 4.058101e-01 4.083813e-01 -2.245050e-01 -7.914194e-02 -1.895555e-01 4.796189e-01 4.126762e-01 -4.476504e-01 -7.007506e-01 2.891916e-02 7.961234e-01 6.332081e-01 1.671469e-02 -2.398230e-01 -1.444919e-01 2.371354e-01 1.613940e-01 -1.711387e-01 -1.404211e-01 1.499628e-01 1.234483e-01 4.896834e-02 -4.089877e-01 -2.332917e-01 5.768887e-02 -6.506235e-03
<VARIANCE> 39
 2.182722e+01 2.911805e+01 2.678038e+01 2.207894e+01 2.394416e+01 2.500199e+01 2.868413e+01 2.606549e+01 2.898849e+01 2.439161e+01 3.209801e+01 3.205008e+01 1.169393e-02 5.915079e-01 8.327352e-01 1.383858e+00 1.377258e+00 1.484941e+00 1.782754e+00 1.992926e+00 2.137585e+00 2.227287e+00 2.022351e+00 2.294424e+00 2.404882e+00 7.976906e-04 1.356726e-01 1.155611e-01 2.553496e-01 2.328322e-01 2.364033e-01 3.378840e-01 3.178891e-01 4.368816e-01 3.479085e-01 3.277256e-01 3.784515e-01 4.727979e-01 1.618087e-04
<GCONST> 8.091245e+01
<MIXTURE> 4 1.199841e-01
<MEAN> 39
 9.530875e+00 -3.734717e+00 -9.126154e+00 -3.692024e+00 1.811379e-01 1.134430e-01 -1.124370e+00 -6.246885e+00 -4.142049e+00 -1.663069e+00 2.560520e+00 1.914852e+00 8.859701e-01 5.033791e-01 4.308020e-01 -1.487050e-01 -7.933230e-01 -6.409448e-01 -6.617156e-02 5.976638e-01 2.231339e-01 -6.215715e-01 -1.017620e+00 -1.048681e+00 -9.993566e-01 -3.126267e-03 -1.227463e-02 -3.863924e-02 9.491816e-02 2.944895e-01 8.857674e-04 -3.122954e-01 -1.176799e-01 3.659546e-01 4.294378e-01 -2.173584e-02 -4.188922e-01 -3.153108e-01 -9.129903e-04
<VARIANCE> 39
 1.464226e+01 2.846085e+01 2.669879e+01 2.898721e+01 3.005381e+01 3.763720e+01 3.735510e+01 3.137140e+01 3.590178e+01 4.509021e+01 5.011525e+01 8.821770e+01 4.134867e-03 4.484652e-01 9.559805e-01 1.552208e+00 2.266700e+00 1.850818e+00 2.425671e+00 2.495593e+00 2.972216e+00 2.500980e+00 2.400908e+00 2.450311e+00 5.212319e+00 8.817192e-05 6.097451e-02 1.763850e-01 2.655788e-01 4.115063e-01 3.531724e-01 4.060966e-01 6.208900e-01 5.850189e-01 4.670614e-01 4.640232e-01 4.112495e-01 6.384162e-01 9.959548e-06
<GCONST> 8.358968e+01
<MIXTURE> 5 1.080429e-01
<MEAN> 39
 9.596441e+00 -3.319274e+00 -9.385702e+00 1.187279e+00 3.270134e+00 -5.496746e+00 -5.918919e+00 1.101439e+00 3.864258e+00 3.124548e+00 -3.537382e+00 -4.374631e+00 8.596308e-01 1.140115e+00 1.025617e+00 -5.744203e-01 -1.022207e+00 1.165055e+00 2.068285e+00 -4.658200e-01 -1.805407e+00 3.064662e-03 1.955861e+00 1.227421e+00 -3.477381e-01 -8.712306e-03 -2.439453e-01 7.277908e-03 4.161673e-01 -2.538654e-01 -6.363235e-01 2.134551e-01 7.594212e-01 -1.262519e-01 -8.059921e-01 -3.272876e-01 4.073801e-01 3.919873e-01 6.632657e-05
<VARIANCE> 39
 1.294672e+01 2.381470e+01 2.521753e+01 1.937309e+01 2.054373e+01 3.536348e+01 3.248265e+01 3.714789e+01 2.731654e+01 3.370512e+01 3.387580e+01 3.312452e+01 6.507439e-03 4.022711e-01 6.204706e-01 1.282112e+00 1.384266e+00 2.528004e+00 2.202195e+00 2.983015e+00 2.514595e+00 2.923278e+00 2.057233e+00 2.601504e+00 2.853687e+00 1.434086e-04 5.661847e-02 1.197602e-01 2.032934e-01 3.625340e-01 3.344183e-01 4.936728e-01 4.488677e-01 5.774932e-01 3.616693e-01 5.170575e-01 4.607146e-01 4.044765e-01 1.811910e-05
<GCONST> 7.893554e+01
<MIXTURE> 6 2.130412e-01
<MEAN> 39
 1.105701e+01 1.253504e+00 -7.571448e+00 -5.179863e+00 -3.143052e+00 -1.829735e+00 5.065868e-01 -8.663830e-01 -2.549766e+00 -2.321080e+00 -3.207588e+00 -3.632779e+00 8.371945e-01 1.242994e-01 -2.461842e-01 2.316563e-01 6.067716e-01 -7.372451e-02 -3.746711e-01 -3.361248e-01 3.070496e-01 2.160188e-01 -2.886744e-01 -8.111399e-01 -1.047397e+00 1.156596e-02 -7.850038e-02 2.092381e-02 1.304082e-01 1.782837e-01 3.594404e-01 2.495031e-01 -1.618378e-01 -8.472896e-02 2.444466e-01 4.974547e-01 4.700483e-01 2.798873e-01 -7.430405e-03
<VARIANCE> 39
 2.273486e+01 3.617760e+01 2.856336e+01 2.376748e+01 2.252827e+01 2.552253e+01 2.547711e+01 2.949916e+01 2.841997e+01 2.909049e+01 3.689226e+01 4.744524e+01 9.068539e-03 5.823277e-01 1.247166e+00 1.459978e+00 1.642452e+00 1.491393e+00 1.863001e+00 2.412963e+00 2.245296e+00 2.297964e+00 2.679553e+00 2.723700e+00 3.166128e+00 5.302188e-04 9.771660e-02 1.861330e-01 3.094522e-01 2.934746e-01 2.405660e-01 3.232048e-01 3.913465e-01 4.432664e-01 4.184100e-01 3.405697e-01 4.702144e-01 4.844773e-01 9.002836e-05
<GCONST> 8.360996e+01
<STATE> 3
<NUMMIXES> 6
<MIXTURE> 1 1.196697e-01
<MEAN> 39
 9.929770e+00 -2.300273e+00 -8.977180e+00 -3.169525e+00 -1.260373e+00 -2.595491e+00 -3.771385e+00 -4.449358e+00 -2.782510e+00 -1.196276e+00 -3.198255e+00 -6.893566e+00 8.579611e-01 3.755790e-01 3.265417e-01 2.961272e-01 3.254580e-01 4.908477e-01 5.665783e-01 2.612236e-01 2.878653e-01 4.052362e-01 6.009718e-01 6.481339e-01 3.791711e-01 -7.685824e-03 6.041515e-02 1.462692e-01 2.154043e-01 2.328806e-01 2.672469e-01 2.609188e-01 3.256095e-01 4.038565e-01 3.577825e-01 2.638142e-01 2.956623e-01 3.661895e-01 -1.391660e-03
<VARIANCE> 39
 2.393051e+01 2.383042e+01 2.940464e+01 2.048200e+01 2.236497e+01 2.858175e+01 2.177215e+01 2.802505e+01 2.501773e+01 2.544798e+01 3.225583e+01 3.438261e+01 8.642602e-03 2.263160e-01 4.880339e-01 7.132630e-01 8.074523e-01 9.541218e-01 1.098617e+00 1.384858e+00 1.547938e+00 1.636369e+00 1.732550e+00 1.977021e+00 2.065523e+00 1.118613e-04 3.789698e-02 7.705498e-02 1.202497e-01 1.425664e-01 1.594809e-01 1.974404e-01 2.639056e-01 2.933136e-01 2.610971e-01 2.579786e-01 2.447108e-01 3.154222e-01 7.935100e-06
<GCONST> 6.449729e+01
<MIXTURE> 2 1.299648e-01
<MEAN> 39
 1.223559e+01 1.012218e+00 -9.264737e+00 -1.909551e+00 3.374861e+00 7.987095e-01 -1.764003e+00 -1.410051e+00 -7.377069e-01 5.664721e+00 3.016503e+00 -4.969847e-01 8.188567e-01 4.199236e-01 6.246995e-01 2.945409e-01 -1.842266e-01 -8.476843e-02 7.387670e-01 7.043857e-01 -6.241812e-02 -2.817014e-01 4.388133e-02 9.054137e-01 7.910612e-01 -9.942159e-03 -1.147972e-01 -1.049473e-01 1.273228e-02 7.491013e-02 -5.972628e-02 -1.994979e-01 -7.718855e-02 1.699225e-01 9.523296e-02 -2.112691e-01 -2.869683e-01 -1.147710e-01 -4.123471e-04
<VARIANCE> 39
 1.014431e+01 2.390409e+01 2.228589e+01 1.933146e+01 2.381453e+01 2.123512e+01 2.145305e+01 2.608578e+01 3.161071e+01 2.258323e+01 2.309819e+01 2.990618e+01 5.789461e-03 1.820824e-01 4.378588e-01 7.114348e-01 9.697790e-01 8.044136e-01 1.075400e+00 1.173149e+00 1.468850e+00 1.549870e+00 1.712078e+00 1.489586e+00 1.471459e+00 1.031080e-04 2.303501e-02 6.328794e-02 8.999101e-02 1.492076e-01 1.387468e-01 1.925908e-01 2.138786e-01 2.687857e-01 2.497042e-01 2.471230e-01 2.495461e-01 2.342974e-01 1.093877e-05
<GCONST> 5.945611e+01
<MIXTURE> 3 2.952732e-01
<MEAN> 39
 1.192350e+01 3.845764e+00 -8.764302e+00 -3.283667e+00 2.225510e+00 9.092885e-01 1.218242e-01 -8.922887e-01 -1.460964e+00 3.269074e+00 3.102277e+00 1.449950e+00 8.097051e-01 9.327599e-02 1.584910e-01 1.342216e-01 1.652668e-02 2.431167e-02 1.661232e-01 1.028923e-01 -4.719770e-02 1.857833e-01 6.803520e-02 4.112926e-02 6.297676e-02 -5.402497e-03 -2.026587e-02 -5.985363e-02 2.237564e-02 1.222684e-02 9.484912e-03 2.481834e-02 -8.865295e-02 -4.217914e-02 4.018064e-02 8.884754e-02 -2.221882e-02 -1.193211e-01 -1.364843e-03
<VARIANCE> 39
 1.030027e+01 2.812083e+01 2.719203e+01 2.046754e+01 2.418779e+01 1.758237e+01 2.287360e+01 2.181994e+01 2.234025e+01 2.461259e+01 2.384180e+01 2.316459e+01 8.243239e-03 1.382994e-01 2.804308e-01 4.071436e-01 4.065334e-01 4.510393e-01 6.269649e-01 7.197082e-01 7.726855e-01 7.740927e-01 8.128713e-01 8.699232e-01 8.080801e-01 8.420335e-05 2.022647e-02 4.530384e-02 6.598312e-02 7.558515e-02 8.530236e-02 1.197022e-01 1.520417e-01 1.470050e-01 1.463186e-01 1.486937e-01 1.665470e-01 1.522764e-01 8.123365e-06
<GCONST> 4.675797e+01
<MIXTURE> 4 1.347412e-01
<MEAN> 39
 1.016483e+01 -8.644536e-01 -6.447533e+00 -1.775513e+00 -1.495369e-01 3.809572e-01 -1.147075e+00 -1.989958e+00 -1.579023e+00 3.610643e-01 -4.086005e-01 -3.945415e+00 8.701155e-01 -1.696693e-01 -2.329144e-01 -3.233557e-01 -2.001750e-01 -2.156197e-01 -1.036294e-01 -6.136484e-01 -6.681290e-01 -4.783709e-01 -1.095619e-01 5.886070e-02 -4.163189e-01 -4.516524e-04 -5.958993e-02 -3.221636e-02 -7.423693e-02 -2.321331e-02 4.434201e-02 -1.256640e-01 -1.782948e-01 -4.110453e-02 7.107688e-02 6.421692e-02 -2.406686e-02 3.155529e-02 -2.261522e-03
<VARIANCE> 39
 2.209374e+01 2.113622e+01 3.052868e+01 1.938461e+01 2.337672e+01 2.397480e+01 2.085585e+01 2.924143e+01 3.637032e+01 2.665812e+01 3.393335e+01 4.778049e+01 7.785580e-03 2.400072e-01 6.360503e-01 8.628775e-01 1.042764e+00 1.144372e+00 1.082937e+00 1.513010e+00 1.739532e+00 1.672358e+00 1.754015e+00 1.768129e+00 1.807333e+00 1.154665e-04 4.344201e-02 1.006050e-01 1.572903e-01 1.974871e-01 2.295267e-01 2.381823e-01 3.095758e-01 3.655534e-01 4.112165e-01 3.427173e-01 3.402299e-01 4.102273e-01 1.208509e-05
<GCONST> 6.948727e+01
<MIXTURE> 5 1.299663e-01
<MEAN> 39
 1.223559e+01 1.012185e+00 -9.264731e+00 -1.909560e+00 3.374819e+00 7.987317e-01 -1.763988e+00 -1.410104e+00 -7.377436e-01 5.664716e+00 3.016501e+00 -4.969699e-01 8.188573e-01 4.199259e-01 6.247034e-01 2.945474e-01 -1.842297e-01 -8.477247e-02 7.387762e-01 7.044040e-01 -6.240663e-02 -2.817128e-01 4.387429e-02 9.054247e-01 7.910793e-01 -9.942201e-03 -1.147993e-01 -1.049491e-01 1.273117e-02 7.491229e-02 -5.972791e-02 -1.995061e-01 -7.719269e-02 1.699302e-01 9.523568e-02 -2.112761e-01 -2.869756e-01 -1.147750e-01 -4.123524e-04
<VARIANCE> 39
 1.014449e+01 2.390409e+01 2.228615e+01 1.933134e+01 2.381459e+01 2.123506e+01 2.145326e+01 2.608583e+01 3.161068e+01 2.258317e+01 2.309824e+01 2.990643e+01 5.789457e-03 1.820839e-01 4.378638e-01 7.114410e-01 9.697892e-01 8.044299e-01 1.075423e+00 1.173160e+00 1.468864e+00 1.549886e+00 1.712099e+00 1.489598e+00 1.471475e+00 1.031098e-04 2.303552e-02 6.328871e-02 8.999248e-02 1.492101e-01 1.387493e-01 1.925949e-01 2.138820e-01 2.687908e-01 2.497081e-01 2.471274e-01 2.495492e-01 2.342998e-01 1.093895e-05
<GCONST> 5.945655e+01
<MIXTURE> 6 1.903752e-01
<MEAN> 39
 3.318175e+00 2.605998e-01 -3.161641e+00 -1.590780e-01 -8.656238e-01 -3.224089e-01 -3.978404e-01 -6.759031e-01 -4.677351e-01 -3.285022e-01 3.273991e-01 -1.129563e-01 9.314120e-01 2.562032e-02 1.029172e-01 3.937342e-02 2.423565e-02 8.445047e-02 1.447863e-01 3.571040e-02 6.211280e-02 1.146160e-01 4.227731e-02 4.124372e-02 1.059342e-04 -4.210950e-03 1.863820e-03 6.245766e-04 -8.581234e-03 -3.671460e-02 8.059056e-03 2.352787e-03 -1.190154e-02 -2.667431e-02 -4.688502e-02 2.703869e-02 -3.013512e-03 -2.078196e-02 -7.977959e-04
<VARIANCE> 39
 7.876211e+00 7.554083e+00 1.400195e+01 8.448481e+00 7.438373e+00 9.051590e+00 1.134263e+01 1.005481e+01 1.264947e+01 1.340591e+01 1.055365e+01 1.467035e+01 3.584739e-03 1.129727e-01 3.038039e-01 4.044325e-01 4.425090e-01 5.870448e-01 6.684080e-01 7.831094e-01 8.490309e-01 9.365839e-01 7.987693e-01 8.670685e-01 8.674884e-01 4.637893e-05 1.665389e-02 4.498078e-02 7.148135e-02 6.869917e-02 9.509015e-02 1.107970e-01 1.372493e-01 1.318810e-01 1.474245e-01 1.366263e-01 1.493447e-01 1.281305e-01 3.965686e-06
<GCONST> 3.566048e+01
<STATE> 4
<NUMMIXES> 6
<MIXTURE> 1 5.278866e-02
<MEAN> 39
 1.162430e+01 1.167716e+00 -9.386106e+00 -2.628022e+00 -1.899328e+00 4.111673e+00 -3.442337e+00 -2.092152e+00 -4.606821e-01 7.884763e-01 5.830735e-01 -2.562975e+00 8.138311e-01 2.706726e-01 4.520619e-01 1.067751e+00 1.632149e-01 6.978208e-01 7.470593e-01 7.094294e-01 1.022199e+00 8.021268e-01 6.691426e-01 7.462413e-01 1.001249e+00 -1.594607e-02 -1.125896e-01 -8.703780e-02 1.618681e-01 1.665016e-01 2.236980e-01 -2.676277e-01 1.560867e-01 2.894329e-01 -6.421209e-02 1.368191e-01 1.845518e-01 1.436571e-01 -1.263543e-03
<VARIANCE> 39
 2.345857e+01 5.078035e+01 4.267325e+01 2.678931e+01 2.127398e+01 2.227021e+01 1.622181e+01 2.409703e+01 2.603364e+01 1.354156e+01 2.985348e+01 3.106210e+01 9.073250e-03 4.454341e-01 7.886315e-01 1.171014e+00 1.666344e+00 1.806048e+00 7.261691e-01 1.351308e+00 2.034253e+00 2.353630e+00 2.348397e+00 1.734590e+00 2.231524e+00 1.627900e-04 3.141330e-02 1.855194e-01 1.530400e-01 2.313107e-01 2.221303e-01 3.410625e-01 2.225971e-01 4.913273e-01 3.080992e-01 2.636638e-01 3.178240e-01 3.600562e-01 1.894143e-05
<GCONST> 7.233881e+01
<MIXTURE> 2 2.130645e-01
<MEAN> 39
 1.299202e+01 4.359624e+00 -5.057877e+00 -1.865039e+00 1.437382e+00 4.286876e+00 9.038115e-01 4.439586e-01 9.273130e-01 3.503782e+00 4.642761e+00 2.285085e+00 6.952738e-01 -8.270766e-02 1.528637e-01 3.877881e-01 1.459296e-01 3.084671e-01 3.359865e-01 2.102809e-02 7.162671e-02 1.891089e-01 3.089914e-01 1.319355e-01 -4.612532e-02 -1.436599e-02 -8.740597e-02 -1.016061e-01 -3.131989e-02 3.933556e-02 1.044916e-01 -1.548701e-01 -1.565882e-01 -6.833094e-02 3.160323e-02 1.836065e-02 -1.443618e-01 -1.787843e-01 2.188776e-04
<VARIANCE> 39
 1.404917e+01 2.865424e+01 2.574581e+01 1.669051e+01 1.882765e+01 1.658056e+01 2.152945e+01 2.535058e+01 2.419819e+01 2.463260e+01 2.369780e+01 2.522695e+01 1.003310e-02 2.606040e-01 5.760305e-01 1.046632e+00 9.069525e-01 9.675749e-01 1.191932e+00 1.363164e+00 1.374431e+00 1.430954e+00 1.360363e+00 1.571793e+00 1.225385e+00 1.587427e-04 4.886644e-02 9.278452e-02 1.533374e-01 1.482070e-01 1.759840e-01 2.156347e-01 2.652320e-01 2.788057e-01 2.887795e-01 2.935620e-01 2.719691e-01 2.415829e-01 1.859608e-05
<GCONST> 6.422187e+01
<MIXTURE> 3 2.719148e-01
<MEAN> 39
 1.333175e+01 1.182145e+00 -8.668468e+00 -1.768723e+00 4.584259e+00 2.126545e+00 -9.585428e-01 -3.127253e+00 -1.448793e+00 6.348277e+00 5.138680e+00 9.688219e-01 8.124887e-01 -1.703879e-01 -3.609433e-01 1.326614e-01 7.523189e-01 4.993315e-01 -3.045180e-01 -7.746452e-01 2.197454e-01 1.174185e+00 8.572368e-01 -2.978111e-01 -7.374304e-01 -6.443831e-03 -1.643399e-01 -1.607496e-01 1.081654e-01 3.000719e-01 -2.913760e-02 -5.337731e-01 -3.300506e-01 4.255244e-01 4.781312e-01 -1.100694e-01 -5.336795e-01 -2.827228e-01 -1.009592e-04
<VARIANCE> 39
 7.351913e+00 2.892024e+01 1.947565e+01 1.854873e+01 2.103312e+01 2.276122e+01 2.391065e+01 2.550065e+01 2.756190e+01 2.764907e+01 2.049523e+01 2.412869e+01 4.979637e-03 2.238126e-01 4.507810e-01 6.305708e-01 6.712996e-01 7.959992e-01 1.242875e+00 1.473133e+00 1.572845e+00 1.470528e+00 1.384055e+00 1.626969e+00 1.389753e+00 1.138244e-04 3.181844e-02 6.766941e-02 1.194208e-01 1.295952e-01 1.523473e-01 2.463173e-01 2.107075e-01 2.690075e-01 2.645511e-01 3.473891e-01 2.345230e-01 2.536096e-01 8.627381e-06
<GCONST> 5.983741e+01
<MIXTURE> 4 1.227743e-01
<MEAN> 39
 1.269526e+01 -3.485113e+00 -8.253363e+00 -1.185650e+00 3.305990e+00 -2.509110e+00 -5.009752e+00 -4.096982e+00 4.676850e-01 2.575206e+00 -4.502642e+00 -9.891105e+00 8.539952e-01 -2.808619e-01 -4.402848e-01 3.082548e-01 9.943878e-01 -8.849266e-02 -8.932726e-01 -6.269606e-01 8.257096e-01 9.096467e-01 -1.231718e-02 -7.912943e-01 -5.099685e-01 -4.916969e-03 -1.033573e-01 -3.872984e-02 2.271571e-01 3.014593e-01 -2.152206e-01 -3.048533e-01 2.876469e-01 6.540609e-01 6.185144e-02 -3.967795e-01 2.315908e-02 6.417792e-01 -1.190664e-03
<VARIANCE> 39
 1.129779e+01 2.248611e+01 2.477705e+01 2.258026e+01 2.358536e+01 4.049466e+01 1.913078e+01 2.787277e+01 3.928343e+01 3.886105e+01 3.749748e+01 3.965630e+01 4.704343e-03 2.836567e-01 5.809321e-01 1.028945e+00 1.058033e+00 9.839392e-01 1.461905e+00 2.257482e+00 2.058024e+00 2.110362e+00 1.955458e+00 1.579234e+00 3.470199e+00 7.915989e-05 5.575461e-02 1.032049e-01 1.192678e-01 2.049490e-01 2.658335e-01 3.159971e-01 3.447731e-01 3.433415e-01 4.630632e-01 4.305402e-01 2.933189e-01 3.723725e-01 1.061962e-05
<GCONST> 7.105471e+01
<MIXTURE> 5 2.130650e-01
<MEAN> 39
 1.299202e+01 4.359638e+00 -5.057889e+00 -1.865037e+00 1.437395e+00 4.286876e+00 9.037830e-01 4.439395e-01 9.273272e-01 3.503792e+00 4.642772e+00 2.285078e+00 6.952738e-01 -8.270723e-02 1.528643e-01 3.877882e-01 1.459269e-01 3.084641e-01 3.359851e-01 2.102983e-02 7.162856e-02 1.891058e-01 3.089887e-01 1.319334e-01 -4.612496e-02 -1.436599e-02 -8.740576e-02 -1.016060e-01 -3.131744e-02 3.933451e-02 1.044901e-01 -1.548701e-01 -1.565849e-01 -6.832856e-02 3.160152e-02 1.835971e-02 -1.443617e-01 -1.787830e-01 2.188597e-04
<VARIANCE> 39
 1.404916e+01 2.865413e+01 2.574574e+01 1.669054e+01 1.882761e+01 1.658061e+01 2.152947e+01 2.535046e+01 2.419819e+01 2.463257e+01 2.369768e+01 2.522685e+01 1.003311e-02 2.606018e-01 5.760267e-01 1.046624e+00 9.069486e-01 9.675692e-01 1.191925e+00 1.363161e+00 1.374423e+00 1.430952e+00 1.360355e+00 1.571784e+00 1.225378e+00 1.587421e-04 4.886604e-02 9.278415e-02 1.533371e-01 1.482070e-01 1.759830e-01 2.156343e-01 2.652313e-01 2.788044e-01 2.887783e-01 2.935602e-01 2.719679e-01 2.415820e-01 1.859601e-05
<GCONST> 6.422171e+01
<MIXTURE> 6 1.263921e-01
<MEAN> 39
 1.318383e+01 8.373954e-01 -8.454016e+00 -1.785083e+00 3.122383e+00 3.652043e+00 -2.918133e+00 -3.490512e+00 5.984911e-02 5.985815e+00 4.469075e+00 -4.343683e-01 7.747598e-01 -4.739302e-01 -6.570551e-01 -1.246248e-01 1.367058e+00 1.240287e+00 -9.842960e-01 -1.629567e+00 3.665685e-01 2.063084e+00 1.427420e+00 -6.677911e-01 -1.250891e+00 -5.780644e-03 -2.984793e-01 -1.694095e-01 2.933536e-01 5.062945e-01 -2.729957e-01 -1.045488e+00 1.253142e-01 9.814780e-01 4.160577e-01 -5.988266e-01 -7.808597e-01 -2.518334e-02 -3.038837e-05
<VARIANCE> 39
 1.009472e+01 3.437366e+01 2.523348e+01 1.785178e+01 2.354518e+01 1.955498e+01 2.738345e+01 2.801912e+01 3.190968e+01 2.508456e+01 2.829650e+01 3.645278e+01 9.966185e-03 3.839794e-01 1.066709e+00 1.586000e+00 1.198415e+00 1.423519e+00 2.112821e+00 2.423347e+00 2.683717e+00 2.038747e+00 2.460125e+00 2.778103e+00 2.150250e+00 2.670507e-04 7.218997e-02 1.802107e-01 2.354386e-01 2.096437e-01 3.168463e-01 3.533399e-01 3.721818e-01 4.156882e-01 3.659275e-01 4.184472e-01 3.840991e-01 4.139909e-01 3.313677e-05
<GCONST> 7.788531e+01
<STATE> 5
<NUMMIXES> 6
<MIXTURE> 1 1.308355e-02
<MEAN> 39
 9.290736e+00 -4.816174e+00 -5.598018e+00 5.727413e+00 4.092618e+00 3.693847e+00 -6.251472e+00 1.553341e-01 1.950342e+00 5.893929e+00 1.287604e+00 3.034675e+00 8.537062e-01 -2.007584e-01 2.486938e-01 1.860552e+00 2.154557e+00 2.041021e+00 -1.548217e+00 1.528186e-01 2.875062e+00 1.396889e+00 5.432757e-01 -3.873739e-01 2.537516e-02 2.273410e-02 -2.606726e-01 3.693856e-01 3.064811e-01 -2.152793e-01 -9.895315e-01 -7.419187e-01 6.561904e-01 5.488813e-01 -5.526848e-01 -2.120243e-01 4.943969e-01 1.926372e-01 5.438849e-03
<VARIANCE> 39
 2.855336e+00 1.678617e+01 1.936583e+01 7.917981e+00 3.108484e+00 1.175243e+01 1.333905e+01 7.547535e+00 9.354950e+00 2.129989e+01 1.462656e+01 5.107421e+01 4.125210e-03 9.523207e-02 5.120353e-01 1.372171e+00 1.362300e+00 6.602620e-01 1.033885e+00 1.587716e+00 2.823985e+00 2.829829e+00 1.649831e+00 7.586227e+00 9.783337e+00 4.359682e-04 5.515070e-02 1.095523e-01 1.981568e-01 8.318962e-02 4.305702e-01 3.845755e-01 1.439269e-01 5.632143e-01 2.497974e-01 7.786455e-01 2.657627e-01 5.698004e-01 2.945090e-05
<GCONST> 6.456029e+01
<MIXTURE> 2 1.820703e-01
<MEAN> 39
 1.101733e+01 3.792843e+00 -5.448723e+00 -1.316675e+00 2.923147e+00 2.443610e+00 -3.580594e-01 -2.061900e-01 1.330575e+00 4.418521e+00 2.670794e+00 -5.941032e-01 7.260843e-01 -1.829200e-01 -1.744376e-02 5.780312e-01 1.929942e-01 2.867117e-01 -4.631940e-02 1.187110e-01 4.949835e-01 2.035624e-01 -3.073977e-01 -2.937052e-01 2.500102e-03 -1.639475e-02 -1.618160e-01 -4.307041e-02 2.761803e-01 2.580268e-02 -1.531870e-02 -9.278084e-02 2.583541e-02 5.096139e-02 -9.756286e-02 -3.238412e-01 -1.632587e-01 5.371939e-02 -2.245920e-03
<VARIANCE> 39
 2.494132e+01 3.264325e+01 3.031979e+01 2.494092e+01 2.381935e+01 2.825994e+01 1.920574e+01 2.105687e+01 2.578825e+01 2.747691e+01 3.131130e+01 2.973842e+01 1.599220e-02 3.345660e-01 6.450216e-01 1.102852e+00 1.057992e+00 1.107008e+00 1.447063e+00 1.580398e+00 1.671073e+00 1.995223e+00 1.806769e+00 1.612904e+00 1.605592e+00 1.375023e-04 6.205376e-02 8.927435e-02 2.057236e-01 1.799226e-01 1.967326e-01 2.187252e-01 2.656103e-01 2.404477e-01 2.621165e-01 2.718900e-01 3.173925e-01 2.707534e-01 2.407377e-05
<GCONST> 7.007233e+01
<MIXTURE> 3 3.691939e-01
<MEAN> 39
 1.188125e+01 -2.127497e+00 -6.753995e+00 2.810604e+00 5.996757e+00 -3.544417e+00 -5.769131e+00 6.147809e-01 5.927413e+00 6.649640e+00 -2.240982e+00 -5.316116e+00 8.021284e-01 -8.091297e-01 -5.924884e-01 1.149919e+00 1.830321e+00 -9.359409e-01 -2.493016e+00 -1.012201e-01 3.039208e+00 1.282736e+00 -1.757544e+00 -1.421360e+00 6.729591e-01 -4.184785e-03 -3.285391e-01 1.058506e-01 6.271504e-01 -1.850297e-01 -9.780899e-01 -1.099675e-01 1.045127e+00 2.173814e-01 -9.146530e-01 -6.589702e-01 5.338028e-01 6.296511e-01 6.515135e-04
<VARIANCE> 39
 1.006592e+01 2.826562e+01 2.528755e+01 1.561923e+01 1.971969e+01 2.534782e+01 2.314641e+01 2.536854e+01 2.801838e+01 2.794179e+01 3.182660e+01 3.292651e+01 7.626344e-03 4.286996e-01 6.058495e-01 1.151055e+00 1.212466e+00 1.229737e+00 1.886961e+00 2.146466e+00 2.159330e+00 2.087388e+00 1.929813e+00 2.071812e+00 2.227959e+00 1.228827e-04 8.140516e-02 1.519469e-01 2.660571e-01 2.195479e-01 2.653935e-01 3.688681e-01 3.715309e-01 3.368221e-01 3.422231e-01 3.839865e-01 3.145656e-01 3.867968e-01 1.577608e-05
<GCONST> 7.308926e+01
<MIXTURE> 4 8.624087e-02
<MEAN> 39
